{"learner":{"attributes":{"scikit_learn":"{\"_estimator_type\": \"classifier\"}"},"feature_names":[],"feature_types":[],"gradient_booster":{"model":{"cats":{"enc":[],"feature_segments":[],"sorted_idx":[]},"gbtree_model_param":{"num_parallel_tree":"1","num_trees":"100"},"iteration_indptr":[0,1,2,3,4,5,6,7,8,9,10,11,12,13,14,15,16,17,18,19,20,21,22,23,24,25,26,27,28,29,30,31,32,33,34,35,36,37,38,39,40,41,42,43,44,45,46,47,48,49,50,51,52,53,54,55,56,57,58,59,60,61,62,63,64,65,66,67,68,69,70,71,72,73,74,75,76,77,78,79,80,81,82,83,84,85,86,87,88,89,90,91,92,93,94,95,96,97,98,99,100],"tree_info":[0,0,0,0,0,0,0,0,0,0,0,0,0,0,0,0,0,0,0,0,0,0,0,0,0,0,0,0,0,0,0,0,0,0,0,0,0,0,0,0,0,0,0,0,0,0,0,0,0,0,0,0,0,0,0,0,0,0,0,0,0,0,0,0,0,0,0,0,0,0,0,0,0,0,0,0,0,0,0,0,0,0,0,0,0,0,0,0,0,0,0,0,0,0,0,0,0,0,0,0],"trees":[{"base_weights":[-0E0,-1.5792934E0,3.907298E-1,-1.1259259E0,-1.9295154E0,-1.4850863E0,6.691554E-1,-4.52459E-1,-5.899582E-1,-1.95231E0,-2.857143E-1,-1.8774775E0,1.1162791E0,9.233129E-1,-5.904762E-1,2.7083334E-1,-1.6239316E0,-8.8E-1,-5.9446156E-1,-3.6E-1,3E-1,-9.206349E-1,-5.951613E-1,-4.3636367E-1,5.647059E-1,1.0964247E0,-1.9464285E0,1.1142857E0,-5.5714285E-1,4.6153846E-1,-1.8148148E0,3E-1,-4.2857146E-1,-5.4418606E-1,8.333333E-1,1.2494199E0,-1.048387E0,-1.5E-1,-5.8909094E-1,-2.7272728E-1,5.027027E-1,-1.5E-1,3.3333337E-1,-2.2500001E-1,-5.75E-1,-3.3333337E-1,4.7368425E-1,2.4096386E-3,4.3710223E-1,8.737865E-2,-5.8389264E-1],"categories":[],"categories_nodes":[],"categories_segments":[],"categories_sizes":[],"default_left":[0,0,0,0,0,0,0,0,0,0,0,0,0,0,0,0,0,0,0,0,0,0,0,0,0,0,0,0,0,0,0,0,0,0,0,0,0,0,0,0,0,0,0,0,0,0,0,0,0,0,0],"id":0,"left_children":[1,3,5,7,9,11,13,15,-1,17,19,21,23,25,-1,27,29,31,-1,-1,-1,33,-1,-1,-1,35,37,39,-1,41,43,-1,-1,-1,45,47,49,-1,-1,-1,-1,-1,-1,-1,-1,-1,-1,-1,-1,-1,-1],"loss_changes":[9.465961E2,4.613611E1,6.4326166E2,7.5536026E1,5.821411E0,1.6465067E2,7.200624E2,6.504775E1,0E0,3.513855E0,5.3142858E0,1.2298584E1,4.5080963E1,4.8799103E2,0E0,8.822202E1,1.2481483E1,7.8742857E0,0E0,0E0,0E0,2.6189556E1,0E0,0E0,0E0,3.041886E2,4.1200256E-1,4.1279964E1,0E0,2.58547E0,1.4907379E0,0E0,0E0,0E0,1.0453217E1,2.221228E2,7.5146675E1,0E0,0E0,0E0,0E0,0E0,0E0,0E0,0E0,0E0,0E0,0E0,0E0,0E0,0E0],"parents":[2147483647,0,0,1,1,2,2,3,3,4,4,5,5,6,6,7,7,9,9,10,10,11,11,12,12,13,13,15,15,16,16,17,17,21,21,25,25,26,26,27,27,29,29,30,30,34,34,35,35,36,36],"right_children":[2,4,6,8,10,12,14,16,-1,18,20,22,24,26,-1,28,30,32,-1,-1,-1,34,-1,-1,-1,36,38,40,-1,42,44,-1,-1,-1,46,48,50,-1,-1,-1,-1,-1,-1,-1,-1,-1,-1,-1,-1,-1,-1],"split_conditions":[6.7408316E-2,1.6401347E2,9.002864E0,3.0855024E3,9.8735245E1,2.5625E0,1.8E0,6E0,-5.899582E-1,6.608E1,9.013852E1,2.4134686E4,2.6134854E2,2.9223892E2,-5.904762E-1,2.4591592E4,2.3991781E4,2.5E4,-5.9446156E-1,-3.6E-1,3E-1,7.75E1,-5.951613E-1,-4.3636367E-1,5.647059E-1,1E2,1.1964723E2,2.3975989E-1,-5.5714285E-1,1.3430903E3,1.0057404E1,3E-1,-4.2857146E-1,-5.4418606E-1,2.5869617E2,1.3958892E1,9.130433E3,-1.5E-1,-5.8909094E-1,-2.7272728E-1,5.027027E-1,-1.5E-1,3.3333337E-1,-2.2500001E-1,-5.75E-1,-3.3333337E-1,4.7368425E-1,2.4096386E-3,4.3710223E-1,8.737865E-2,-5.8389264E-1],"split_indices":[25,37,40,38,35,28,21,1,0,52,16,26,29,33,0,19,26,7,0,0,0,16,0,0,0,3,17,3,0,5,37,0,0,0,10,18,8,0,0,0,0,0,0,0,0,0,0,0,0,0,0],"split_type":[0,0,0,0,0,0,0,0,0,0,0,0,0,0,0,0,0,0,0,0,0,0,0,0,0,0,0,0,0,0,0,0,0,0,0,0,0,0,0,0,0,0,0,0,0,0,0,0,0,0,0],"sum_hessian":[1.532E3,3.0325E2,1.22875E3,1.34E2,1.6925E2,1.5825E2,1.0705E3,7.525E1,5.875E1,1.6675E2,2.5E0,1.3775E2,2.05E1,9.77E2,9.35E1,4.7E1,2.825E1,5.25E0,1.615E2,1.5E0,1E0,1.475E1,1.23E2,4.5E0,1.6E1,9.22E2,5.5E1,3.4E1,1.3E1,2.25E0,2.6E1,1E0,4.25E0,9.75E0,5E0,8.61E2,6.1E1,1E0,5.4E1,7.25E0,2.675E1,1E0,1.25E0,3E0,2.3E1,1.25E0,3.75E0,1.235E2,7.375E2,2.475E1,3.625E1],"tree_param":{"num_deleted":"0","num_feature":"58","num_nodes":"51","size_leaf_vector":"1"}},{"base_weights":[-5.898807E-3,-1.1473452E0,3.0726358E-1,-4.8556557E-1,-4.1669387E-1,-1.0187013E0,5.498469E-1,-1.5163907E0,3.5529846E-1,-2.0708968E-1,-1.3135507E0,-1.2664897E0,7.0632154E-1,-1.6236237E0,1.9518834E-1,7.884429E-1,-4.4163266E-1,-1.0867414E0,8.3610827E-1,-2.8385904E-1,-1.5066179E0,-1.1432319E-1,-5.0808966E-1,8.616326E-1,-4.533134E-1,-4.9676248E-1,-1.2933552E-1,-4.5984754E-1,1.1875901E0,-1.4262958E0,3.4653214E-1,1.492008E0,-3.9003733E-1,-4.3067005E-1,7.426852E-1,-4.67389E-1,-7.377035E-1,-1.3276718E0,9.618889E-1,1.0275667E0,-9.7496964E-2,4.2070544E-1,-3.8199177E-1,-4.531822E-1,5.454721E-3,3.5536903E-1,-2.4236156E-1,4.7139826E-1,5.8186296E-2,-3.518238E-1,4.3287963E-1,2.1258874E-1,-3.97984E-1,8.082886E-2,-5.109445E-1,-2.8977558E-1,4.048384E-1,-2.3578072E-1,3.3902282E-1,-5.9515923E-1,1.6436669E-1],"categories":[],"categories_nodes":[],"categories_segments":[],"categories_sizes":[],"default_left":[0,0,0,0,0,0,0,0,0,0,0,0,0,0,0,0,0,0,0,0,0,0,0,0,0,0,0,0,0,0,0,0,0,0,0,0,0,0,0,0,0,0,0,0,0,0,0,0,0,0,0,0,0,0,0,0,0,0,0,0,0],"id":1,"left_children":[1,3,5,-1,7,9,11,13,15,17,19,21,23,25,-1,27,-1,29,31,33,35,37,-1,39,-1,-1,-1,-1,41,43,45,47,-1,-1,49,-1,51,53,55,57,59,-1,-1,-1,-1,-1,-1,-1,-1,-1,-1,-1,-1,-1,-1,-1,-1,-1,-1,-1,-1],"loss_changes":[5.1794196E2,1.06724396E2,3.6629297E2,0E0,1.05511856E2,4.1892517E1,2.7425687E2,1.2951706E1,5.930612E1,4.508447E1,2.522882E1,3.7526947E1,3.0648737E2,1.1730347E0,0E0,5.7444546E1,0E0,1.34165E1,3.358905E1,2.6614716E1,3.1322174E0,2.9746851E1,0E0,1.3200769E2,0E0,0E0,0E0,0E0,2.9156914E1,2.6656036E0,6.6552467E0,1.5225296E0,0E0,0E0,1.7901064E1,0E0,8.339979E0,6.856369E0,1.0369511E1,1.3225671E2,1.5101874E2,0E0,0E0,0E0,0E0,0E0,0E0,0E0,0E0,0E0,0E0,0E0,0E0,0E0,0E0,0E0,0E0,0E0,0E0,0E0,0E0],"parents":[2147483647,0,0,1,1,2,2,4,4,5,5,6,6,7,7,8,8,9,9,10,10,11,11,12,12,13,13,15,15,17,17,18,18,19,19,20,20,21,21,23,23,28,28,29,29,30,30,31,31,34,34,36,36,37,37,38,38,39,39,40,40],"right_children":[2,4,6,-1,8,10,12,14,16,18,20,22,24,26,-1,28,-1,30,32,34,36,38,-1,40,-1,-1,-1,-1,42,44,46,48,-1,-1,50,-1,52,54,56,58,60,-1,-1,-1,-1,-1,-1,-1,-1,-1,-1,-1,-1,-1,-1,-1,-1,-1,-1,-1,-1],"split_conditions":[7.28E1,8.008806E0,6.7408316E-2,-4.8556557E-1,1.7097527E1,5.74E1,5.92E1,2.0000193E4,2.8630453E2,8.55047E4,1.0889708E2,2.413472E4,1.8E0,7.163009E1,1.9518834E-1,2.5019194E2,-4.4163266E-1,4.168439E3,2.719702E2,2.2078852E1,1.9116555E0,2.2771451E4,-5.0808966E-1,8.54E1,-4.533134E-1,-4.9676248E-1,-1.2933552E-1,-4.5984754E-1,7.86557E0,9.334813E1,1E2,1.4848674E2,-3.9003733E-1,-4.3067005E-1,2.5659943E2,-4.67389E-1,5.731055E0,1.01597115E2,1.0477039E1,2.4370651E2,8.008806E0,4.2070544E-1,-3.8199177E-1,-4.531822E-1,5.454721E-3,3.5536903E-1,-2.4236156E-1,4.7139826E-1,5.8186296E-2,-3.518238E-1,4.3287963E-1,2.1258874E-1,-3.97984E-1,8.082886E-2,-5.109445E-1,-2.8977558E-1,4.048384E-1,-2.3578072E-1,3.3902282E-1,-5.9515923E-1,1.6436669E-1],"split_indices":[35,56,25,0,57,36,16,22,32,7,52,26,21,35,0,44,0,5,11,57,28,26,0,36,0,0,0,0,42,16,2,37,0,0,10,0,9,17,40,10,56,0,0,0,0,0,0,0,0,0,0,0,0,0,0,0,0,0,0,0,0],"split_type":[0,0,0,0,0,0,0,0,0,0,0,0,0,0,0,0,0,0,0,0,0,0,0,0,0,0,0,0,0,0,0,0,0,0,0,0,0,0,0,0,0,0,0,0,0,0,0,0,0,0,0,0,0,0,0,0,0,0,0,0,0],"sum_hessian":[1.4469722E3,3.1094482E2,1.1360273E3,1.8829543E2,1.226494E2,1.7519716E2,9.608302E2,5.0189957E1,7.245944E1,4.7140133E1,1.2805704E2,7.564612E1,8.8518414E2,4.8062386E1,2.1275706E0,5.903509E1,1.3424352E1,2.5552149E1,2.1587982E1,2.0609573E1,1.07447464E2,2.0802214E1,5.4843903E1,8.27813E2,5.737112E1,4.6418438E1,1.6439457E0,8.24507E0,5.079002E1,2.0662018E1,4.890132E0,1.6747478E1,4.840503E0,9.524893E0,1.1084681E1,9.975968E1,7.6877832E0,9.668289E0,1.11339245E1,7.056591E2,1.2215387E2,4.7108986E1,3.681033E0,1.9479267E1,1.1827496E0,2.8181736E0,2.0719585E0,1.5584631E1,1.1628475E0,2.786854E0,8.297827E0,2.165684E0,5.522099E0,1.8941005E0,7.7741885E0,1.6139274E0,9.519998E0,3.739706E1,6.682621E2,3.0610373E1,9.1543495E1],"tree_param":{"num_deleted":"0","num_feature":"58","num_nodes":"61","size_leaf_vector":"1"}},{"base_weights":[-1.4025686E-2,-8.752531E-1,3.0037603E-1,-4.848515E-1,-1.4657894E0,5.3653723E-1,-6.7836714E-1,-1.3993685E-1,-4.5269272E-1,-1.3019593E0,-1.6326813E0,6.5011126E-1,-1.27795E0,-1.248974E0,4.1920316E-1,2.4687694E-1,-4.256491E-1,-8.4983185E-2,-1.3406938E0,-4.001393E-1,-1.8816228E0,-7.0002884E-1,8.33079E-1,-3.8166055E-1,-3.970933E-1,6.09519E-1,-1.4015645E0,-8.1232333E-1,1.3380643E0,6.706353E-1,-4.1591612E-1,-2.2907682E-1,2.1837251E-1,-7.0228034E-1,-4.114517E-1,-6.1017734E-1,-3.5708523E-1,6.2637365E-1,-1.2540815E0,-1.2225548E0,9.256778E-1,-3.2537162E-1,2.102565E-1,-2.509282E-1,3.672989E-1,-6.956376E-1,-1.4994808E0,3.9902827E-1,-4.8210388E-1,1.5736028E0,-4.2188445E-1,2.662476E-1,-4.3175122E-1,1.3925417E-1,-3.2504606E-1,2.9264766E-1,-3.8277498E-1,-4.1847816E-1,1.2656152E-1,-4.8239768E-1,-1.3646217E-2,-2.9808712E-1,3.0227038E-1,1.3111995E-1,-4.1747466E-1,-4.5755592E-1,-2.810445E-1,-8.589344E-2,4.920086E-1],"categories":[],"categories_nodes":[],"categories_segments":[],"categories_sizes":[],"default_left":[0,0,0,0,0,0,0,0,0,0,0,0,0,0,0,0,0,0,0,0,0,0,0,0,0,0,0,0,0,0,0,0,0,0,0,0,0,0,0,0,0,0,0,0,0,0,0,0,0,0,0,0,0,0,0,0,0,0,0,0,0,0,0,0,0,0,0,0,0],"id":2,"left_children":[1,3,5,7,9,11,13,15,-1,17,19,21,23,25,27,29,-1,31,33,-1,35,37,39,41,-1,43,45,47,49,51,-1,-1,-1,53,-1,-1,-1,55,57,59,61,-1,-1,-1,-1,63,65,-1,-1,67,-1,-1,-1,-1,-1,-1,-1,-1,-1,-1,-1,-1,-1,-1,-1,-1,-1,-1,-1],"loss_changes":[3.5276044E2,7.961319E1,2.2096985E2,7.440605E1,1.6520996E0,1.5939842E2,1.1699195E2,7.906693E1,0E0,3.4054718E0,2.2899475E0,1.7962952E2,1.3649368E0,3.5624573E1,7.3916725E1,8.6074554E1,0E0,2.4152107E0,4.5880127E-1,0E0,1.0283508E0,6.4753105E1,1.22716675E2,3.514768E0,0E0,9.913713E0,6.809738E0,5.0018906E1,2.628267E1,4.6276215E1,0E0,0E0,0E0,2.894174E0,0E0,0E0,0E0,1.8719776E1,1.5159882E1,1.2613667E1,9.715613E1,0E0,0E0,0E0,0E0,1.2987724E1,1.6937256E-3,0E0,0E0,4.7646866E0,0E0,0E0,0E0,0E0,0E0,0E0,0E0,0E0,0E0,0E0,0E0,0E0,0E0,0E0,0E0,0E0,0E0,0E0,0E0],"parents":[2147483647,0,0,1,1,2,2,3,3,4,4,5,5,6,6,7,7,9,9,10,10,11,11,12,12,13,13,14,14,15,15,17,17,18,18,20,20,21,21,22,22,23,23,25,25,26,26,27,27,28,28,29,29,33,33,37,37,38,38,39,39,40,40,45,45,46,46,49,49],"right_children":[2,4,6,8,10,12,14,16,-1,18,20,22,24,26,28,30,-1,32,34,-1,36,38,40,42,-1,44,46,48,50,52,-1,-1,-1,54,-1,-1,-1,56,58,60,62,-1,-1,-1,-1,64,66,-1,-1,68,-1,-1,-1,-1,-1,-1,-1,-1,-1,-1,-1,-1,-1,-1,-1,-1,-1,-1,-1],"split_conditions":[6.1959755E-2,3.1639285E2,3.9143823E2,2.906182E2,7.163009E1,1.76E0,1.0000944E1,2.4591592E4,-4.5269272E-1,3.2107172E2,6.7408316E-2,1.1077362E1,1.86E0,1.0935706E2,2.0000068E4,6.8007976E-2,-4.256491E-1,4.895142E4,2.7624066E2,-4.001393E-1,1.8E0,2.4134686E4,2.4280103E2,1.6028944E1,-3.970933E-1,2.2078852E1,1.8210474E2,1.1E1,6.0816115E-1,2.0000045E4,-4.1591612E-1,-2.2907682E-1,2.1837251E-1,1.8178269E3,-4.114517E-1,-6.1017734E-1,-3.5708523E-1,5.8777924E0,8.004E2,8.3408753E-7,3.97E4,-3.2537162E-1,2.102565E-1,-2.509282E-1,3.672989E-1,6.98E1,4.61248E3,3.9902827E-1,-4.8210388E-1,2.5177426E2,-4.2188445E-1,2.662476E-1,-4.3175122E-1,1.3925417E-1,-3.2504606E-1,2.9264766E-1,-3.8277498E-1,-4.1847816E-1,1.2656152E-1,-4.8239768E-1,-1.3646217E-2,-2.9808712E-1,3.0227038E-1,1.3111995E-1,-4.1747466E-1,-4.5755592E-1,-2.810445E-1,-8.589344E-2,4.920086E-1],"split_indices":[24,17,37,14,35,21,56,19,0,17,25,40,21,17,39,21,0,6,31,0,21,26,10,57,0,57,17,56,28,39,0,0,0,22,0,0,0,9,52,27,6,0,0,0,0,36,53,0,0,29,0,0,0,0,0,0,0,0,0,0,0,0,0,0,0,0,0,0,0],"split_type":[0,0,0,0,0,0,0,0,0,0,0,0,0,0,0,0,0,0,0,0,0,0,0,0,0,0,0,0,0,0,0,0,0,0,0,0,0,0,0,0,0,0,0,0,0,0,0,0,0,0,0,0,0,0,0,0,0,0,0,0,0,0,0,0,0,0,0,0,0],"sum_hessian":[1.3008271E3,3.4740674E2,9.534205E2,2.102393E2,1.3716743E2,7.684522E2,1.8496823E2,1.5812204E2,5.2117264E1,7.365997E1,6.350746E1,7.2378986E2,4.466238E1,1.2160833E2,6.3359905E1,1.22022194E2,3.6099842E1,2.3706956E0,7.1289276E1,3.174806E1,3.1759401E1,8.604295E1,6.377469E2,2.6201792E0,4.2042202E1,8.999799E0,1.12608536E2,2.7123247E1,3.623666E1,9.73529E1,2.4669298E1,1.3251247E0,1.045571E0,4.3776536E0,6.691162E1,2.443449E1,7.3249097E0,2.5313023E1,6.0729935E1,2.6963858E1,6.10783E2,1.5874791E0,1.0327001E0,2.5774775E0,6.422321E0,1.4704076E1,9.790446E1,7.1564145E0,1.9966833E1,3.3765293E1,2.4713662E0,8.880447E1,8.54843E0,1.0246488E0,3.353005E0,2.1799469E1,3.5135543E0,5.6176582E1,4.5533504E0,2.0036644E1,6.9272137E0,2.4538048E1,5.86245E2,5.7376246E0,8.966452E0,9.199118E1,5.913273E0,1.050178E0,3.2715115E1],"tree_param":{"num_deleted":"0","num_feature":"58","num_nodes":"69","size_leaf_vector":"1"}},{"base_weights":[-2.2038577E-2,-8.300849E-1,2.322368E-1,-2.9956648E-1,-1.2065339E0,-9.886242E-1,4.0510866E-1,-1.0533863E0,5.211967E-1,-1.3876992E0,6.0963863E-1,-2.6336244E-1,-1.1812958E0,-3.6972037E-1,6.392996E-1,2.4374406E-1,-1.3131576E0,9.026917E-1,-5.356167E-1,1.2255945E-1,-1.4090302E0,1.1243837E0,-3.578789E-1,8.230949E-1,-1.0173396E0,-7.0176876E-1,-1.2524583E0,9.730764E-1,-1.3888229E0,7.502086E-1,-9.1827756E-1,-8.618591E-1,9.98671E-1,-1.3967049E0,1.7739713E-1,1.178228E0,-3.896663E-1,-1.311424E0,-1.6664919E0,1.5917547E-2,3.6645675E-1,-2.1193095E-1,1.11419E0,1.4167773E-2,-3.5262993E-1,-3.509484E-1,7.318603E-1,-1.1384558E-1,-3.7860584E-1,1.182857E0,-1.1424807E0,-5.9522295E-1,-1.6043804E0,8.765336E-1,-6.683394E-1,-1.4624023E0,-2.8560003E-2,-3.1586742E-1,-2.1057338E-2,1.743128E-2,3.482225E-1,-4.5408866E-1,4.748257E-2,3.8095507E-1,-2.9400498E-1,-3.9879322E-1,-1.1165483E-1,-4.0579987E-1,-6.320579E-1,8.228887E-2,3.556838E-1,4.2453585E-3,3.1227973E-1,-3.6335713E-1,3.9237756E-1,1.5391372E-1,-4.7798797E-1,-3.8679293E-1,1.3893253E-1,-3.4460342E-1,-5.142015E-1,2.784467E-1,-3.9466035E-1,-4.0080568E-1,7.642394E-2,-5.44965E-1,-3.483678E-1,3.0584154E-1,-3.2671982E-1],"categories":[],"categories_nodes":[],"categories_segments":[],"categories_sizes":[],"default_left":[0,0,0,0,0,0,0,0,0,0,0,0,0,0,0,0,0,0,0,0,0,0,0,0,0,0,0,0,0,0,0,0,0,0,0,0,0,0,0,0,0,0,0,0,0,0,0,0,0,0,0,0,0,0,0,0,0,0,0,0,0,0,0,0,0,0,0,0,0,0,0,0,0,0,0,0,0,0,0,0,0,0,0,0,0,0,0,0,0],"id":3,"left_children":[1,3,5,7,9,11,13,15,17,19,21,23,25,27,29,31,33,35,-1,-1,37,39,-1,41,43,45,47,49,51,53,55,57,59,61,-1,63,-1,65,67,-1,-1,-1,69,-1,-1,-1,71,-1,-1,73,75,77,79,81,83,85,87,-1,-1,-1,-1,-1,-1,-1,-1,-1,-1,-1,-1,-1,-1,-1,-1,-1,-1,-1,-1,-1,-1,-1,-1,-1,-1,-1,-1,-1,-1,-1,-1],"loss_changes":[2.3449016E2,5.4192932E1,1.8362714E2,7.152127E1,5.331044E1,1.4776695E1,1.3835922E2,2.0579544E1,5.0524418E1,6.1426697E0,1.540559E1,2.0456375E1,2.0224E0,2.4398053E2,1.0172685E2,9.937812E0,8.821281E0,3.0867004E1,0E0,0E0,1.4285889E0,1.2157879E0,0E0,5.401768E0,2.510274E0,9.754829E0,1.2838745E-1,3.556404E1,1.635913E1,9.852713E1,1.8997787E1,6.7463493E-1,9.883127E-1,9.045769E0,0E0,9.847523E0,0E0,1.3360138E0,2.1032257E0,0E0,0E0,0E0,2.2039795E-1,0E0,0E0,0E0,8.4575677E-1,0E0,0E0,2.2731033E1,6.3875647E0,1.764581E1,1.9778595E0,5.8059998E1,2.8234816E1,4.9137497E-1,1.8831734E1,0E0,0E0,0E0,0E0,0E0,0E0,0E0,0E0,0E0,0E0,0E0,0E0,0E0,0E0,0E0,0E0,0E0,0E0,0E0,0E0,0E0,0E0,0E0,0E0,0E0,0E0,0E0,0E0,0E0,0E0,0E0,0E0],"parents":[2147483647,0,0,1,1,2,2,3,3,4,4,5,5,6,6,7,7,8,8,9,9,10,10,11,11,12,12,13,13,14,14,15,15,16,16,17,17,20,20,21,21,23,23,24,24,25,25,26,26,27,27,28,28,29,29,30,30,31,31,32,32,33,33,35,35,37,37,38,38,42,42,46,46,49,49,50,50,51,51,52,52,53,53,54,54,55,55,56,56],"right_children":[2,4,6,8,10,12,14,16,18,20,22,24,26,28,30,32,34,36,-1,-1,38,40,-1,42,44,46,48,50,52,54,56,58,60,62,-1,64,-1,66,68,-1,-1,-1,70,-1,-1,-1,72,-1,-1,74,76,78,80,82,84,86,88,-1,-1,-1,-1,-1,-1,-1,-1,-1,-1,-1,-1,-1,-1,-1,-1,-1,-1,-1,-1,-1,-1,-1,-1,-1,-1,-1,-1,-1,-1,-1,-1],"split_conditions":[1.713447E-2,2.733031E2,6.7408316E-2,8.55047E4,6.3382186E-2,5E0,6.0838394E0,2.753E2,8.671225E1,2.7719424E2,2.915553E2,2.1524348E2,2.3991781E4,5.599998E1,1.0440983E0,6.1959755E-2,1.9263819E-8,1.6240425E2,-5.356167E-1,1.2255945E-1,6.476856E1,2.2626137E4,-3.578789E-1,1.8021063E1,1.2636283E-1,2.1949512E4,6.1162735E1,2.8609854E2,6.45E1,2.98E4,2.8277783E2,2.3975989E-1,9.37E1,8.35E4,1.7739713E-1,3.2222067E2,-3.896663E-1,2.1628444E-3,7.5282074E1,1.5917547E-2,3.6645675E-1,-2.1193095E-1,7.9569916E1,1.4167773E-2,-3.5262993E-1,-3.509484E-1,1.3434171E3,-1.1384558E-1,-3.7860584E-1,2.554411E2,2.1258472E2,2.1628444E-3,9.002864E0,2.926157E2,1.1321715E-5,1.8E0,1.86E0,-3.1586742E-1,-2.1057338E-2,1.743128E-2,3.482225E-1,-4.5408866E-1,4.748257E-2,3.8095507E-1,-2.9400498E-1,-3.9879322E-1,-1.1165483E-1,-4.0579987E-1,-6.320579E-1,8.228887E-2,3.556838E-1,4.2453585E-3,3.1227973E-1,-3.6335713E-1,3.9237756E-1,1.5391372E-1,-4.7798797E-1,-3.8679293E-1,1.3893253E-1,-3.4460342E-1,-5.142015E-1,2.784467E-1,-3.9466035E-1,-4.0080568E-1,7.642394E-2,-5.44965E-1,-3.483678E-1,3.0584154E-1,-3.2671982E-1],"split_indices":[23,30,25,7,28,23,56,34,35,31,32,17,26,36,21,24,27,37,0,0,25,19,0,57,23,26,17,32,36,19,48,3,16,6,0,17,0,28,35,0,0,0,50,0,0,0,5,0,0,11,17,28,40,33,27,21,21,0,0,0,0,0,0,0,0,0,0,0,0,0,0,0,0,0,0,0,0,0,0,0,0,0,0,0,0,0,0,0,0],"split_type":[0,0,0,0,0,0,0,0,0,0,0,0,0,0,0,0,0,0,0,0,0,0,0,0,0,0,0,0,0,0,0,0,0,0,0,0,0,0,0,0,0,0,0,0,0,0,0,0,0,0,0,0,0,0,0,0,0,0,0,0,0,0,0,0,0,0,0,0,0,0,0,0,0,0,0,0,0,0,0,0,0,0,0,0,0,0,0,0,0],"sum_hessian":[1.1393202E3,2.7216357E2,8.671567E2,1.13710495E2,1.5845306E2,1.06972595E2,7.601841E2,5.9124714E1,5.4585785E1,1.4429536E2,1.4157709E1,2.2950037E1,8.402256E1,1.7630243E2,5.8388165E2,9.8753395E0,4.9249374E1,4.7361183E1,7.224601E0,1.4804215E0,1.4281494E2,1.1305515E1,2.8521938E0,9.364466E0,1.358557E1,1.2261356E1,7.176121E1,7.608974E1,1.002127E2,5.455532E2,3.832839E1,3.9495347E0,5.925805E0,4.7435078E1,1.8142962E0,4.250619E1,4.8549905E0,1.0797444E2,3.48405E1,1.0684115E0,1.0237104E1,1.269128E0,8.095338E0,1.8473321E0,1.1738238E1,9.38221E0,2.8791468E0,1.2182596E0,7.0542946E1,6.9626396E1,6.463342E0,2.2208992E1,7.800371E1,5.0129395E2,4.425931E1,2.3383852E1,1.4944538E1,2.9159417E0,1.0335929E0,1.0706813E0,4.855124E0,4.4142456E1,3.2926214E0,4.1170063E1,1.3361292E0,1.0554909E2,2.425355E0,2.272052E1,1.2119981E1,1.0138196E0,7.0815177E0,1.1814468E0,1.6977E0,3.0256333E0,6.660076E1,1.3537815E0,5.109561E0,1.3280788E1,8.928204E0,1.7351778E1,6.065193E1,4.9032367E2,1.0970255E1,2.5423115E1,1.8836197E1,8.434436E0,1.4949416E1,7.535937E0,7.408601E0],"tree_param":{"num_deleted":"0","num_feature":"58","num_nodes":"89","size_leaf_vector":"1"}},{"base_weights":[-2.8940715E-2,1.572127E-1,-8.6180043E-1,2.6197615E-1,-3.4032214E-1,-1.34555E0,9.858524E-2,-8.327622E-1,4.0838826E-1,-1.1397192E0,-1.4390506E0,-4.38582E-1,7.2801024E-1,-1.1688162E0,6.048597E-1,-4.3831405E-1,4.8253244E-1,1.1286085E-1,-3.5824227E-1,-1.6417825E0,-3.493185E-1,1.0803924E0,-4.2156285E-1,-6.8771726E-1,-1.2500879E0,-2.7854532E-1,3.4133682E-1,6.069839E-1,-4.4605747E-1,-3.3450451E-1,-1.8287965E0,-2.3763599E-1,1.180723E0,9.5851E-2,-3.189189E-1,-1.0945476E-1,-3.7794074E-1,2.138728E-1,-9.197587E-2,-2.3710133E-1,2.0882006E-1,-5.709675E-1,-2.5762257E-1,-1.9770533E-2,3.6673287E-1],"categories":[],"categories_nodes":[],"categories_segments":[],"categories_sizes":[],"default_left":[0,0,0,0,0,0,0,0,0,0,0,0,0,0,0,0,0,0,0,0,0,0,0,0,0,0,0,0,0,0,0,0,0,0,0,0,0,0,0,0,0,0,0,0,0],"id":4,"left_children":[1,3,5,7,-1,9,11,13,15,17,19,-1,21,23,25,-1,27,-1,-1,29,-1,31,-1,33,35,-1,-1,37,39,-1,41,-1,43,-1,-1,-1,-1,-1,-1,-1,-1,-1,-1,-1,-1],"loss_changes":[1.5153294E2,1.0840877E2,8.308118E1,1.1892305E2,0E0,6.4630127E-1,6.0724346E1,4.30299E1,9.124793E1,3.9074097E0,2.4251099E0,0E0,3.455528E1,1.929924E0,1.515824E1,0E0,7.296808E1,0E0,0E0,2.1349564E0,0E0,8.127708E0,0E0,5.078063E0,5.4725647E-2,0E0,0E0,5.3939896E1,3.000985E1,0E0,5.1049805E-1,0E0,1.9913025E0,0E0,0E0,0E0,0E0,0E0,0E0,0E0,0E0,0E0,0E0,0E0,0E0],"parents":[2147483647,0,0,1,1,2,2,3,3,5,5,6,6,7,7,8,8,9,9,10,10,12,12,13,13,14,14,16,16,19,19,21,21,23,23,24,24,27,27,28,28,30,30,32,32],"right_children":[2,4,6,8,-1,10,12,14,16,18,20,-1,22,24,26,-1,28,-1,-1,30,-1,32,-1,34,36,-1,-1,38,40,-1,42,-1,44,-1,-1,-1,-1,-1,-1,-1,-1,-1,-1,-1,-1],"split_conditions":[2.8765457E2,1.8E0,1.9263819E-8,1.1077362E1,-3.4032214E-1,9E0,3.129604E3,2.7766315E2,2.6562296E2,2.4134654E4,2.9223892E2,-4.38582E-1,1.585512E-1,2.413471E4,2.2078852E1,-4.3831405E-1,1E2,1.1286085E-1,-3.5824227E-1,6.7408316E-2,-3.493185E-1,1.5772794E1,-4.2156285E-1,1.999986E4,1.1968298E3,-2.7854532E-1,3.4133682E-1,9.95E1,-9.675535E2,-3.3450451E-1,1.8E0,-2.3763599E-1,3.9821775E0,9.5851E-2,-3.189189E-1,-1.0945476E-1,-3.7794074E-1,2.138728E-1,-9.197587E-2,-2.3710133E-1,2.0882006E-1,-5.709675E-1,-2.5762257E-1,-1.9770533E-2,3.6673287E-1],"split_indices":[13,21,27,40,0,40,22,11,30,26,33,0,55,26,57,0,2,0,0,25,0,25,0,39,39,0,0,50,0,0,21,0,40,0,0,0,0,0,0,0,0,0,0,0,0],"split_type":[0,0,0,0,0,0,0,0,0,0,0,0,0,0,0,0,0,0,0,0,0,0,0,0,0,0,0,0,0,0,0,0,0,0,0,0,0,0,0,0,0,0,0,0,0],"sum_hessian":[9.7550775E2,7.9796497E2,1.7754282E2,7.3883514E2,5.912985E1,1.1780366E2,5.9739155E1,8.660357E1,6.5223157E2,4.091763E1,7.6886024E1,1.678979E1,4.2949364E1,7.034655E1,1.6257015E1,2.4167921E1,6.2806366E2,1.2131264E0,3.9704502E1,4.137111E1,3.5514915E1,3.7284035E1,5.665332E0,1.1533621E1,5.881293E1,4.001547E0,1.2255468E1,5.541427E2,7.392094E1,1.266355E1,2.870756E1,1.5454545E0,3.573858E1,3.1715934E0,8.362027E0,1.0569289E0,5.7756004E1,4.9676416E2,5.737854E1,5.703608E1,1.6884861E1,2.5768469E1,2.9390893E0,1.1385397E0,3.460004E1],"tree_param":{"num_deleted":"0","num_feature":"58","num_nodes":"45","size_leaf_vector":"1"}},{"base_weights":[-3.3139065E-2,-6.923433E-1,1.7810154E-1,-3.7734556E-1,-1.1952318E0,4.4395173E-1,-3.2009384E-1,-1.2603893E0,-9.5082924E-2,-3.6787277E-1,-5.2712786E-1,-1.1159219E0,5.344743E-1,-1.1592681E0,4.089525E-4,-3.8972545E-1,-1.1162744E-1,4.6205682E-1,-9.426422E-1,1.8218774E-1,-3.0915886E-1,-4.0949425E-1,-2.3692681E-1,6.377579E-1,-8.7242895E-1,8.030394E-2,-1.2052013E0,2.3215806E-1,-1.1337153E0,6.835306E-1,-3.2673693E-1,-7.3397696E-2,-1.2091949E0,-3.5313058E-1,3.013735E-1,7.574214E-1,-2.7902287E-1,1.3906455E-1,-3.8029328E-1,-6.361694E-1,-4.0315777E-1,-8.123348E-1,6.4236003E-1,-6.904486E-2,-1.7002602E0,-2.9370043E-1,2.601237E-1,-2.821482E-1,1.3888517E-1,-1.2982234E-1,-3.935599E-1,2.4531703E-1,-2.934925E-1,1.5154153E-1,-4.4197804E-1,2.4165495E-1,-3.4375042E-1,1.6659114E-1,-3.6130625E-1,8.877689E-2,-3.673217E-1,2.2573537E-1,-3.526743E-1,-3.5181087E-1,2.3826194E-1,-1.2940148E-1,-5.274761E-1],"categories":[],"categories_nodes":[],"categories_segments":[],"categories_sizes":[],"default_left":[0,0,0,0,0,0,0,0,0,0,0,0,0,0,0,0,0,0,0,0,0,0,0,0,0,0,0,0,0,0,0,0,0,0,0,0,0,0,0,0,0,0,0,0,0,0,0,0,0,0,0,0,0,0,0,0,0,0,0,0,0,0,0,0,0,0,0],"id":5,"left_children":[1,3,5,7,9,11,13,15,17,-1,19,21,23,25,27,-1,-1,29,31,-1,-1,-1,33,35,37,-1,39,41,43,45,-1,47,49,-1,-1,51,53,55,-1,57,-1,59,61,63,65,-1,-1,-1,-1,-1,-1,-1,-1,-1,-1,-1,-1,-1,-1,-1,-1,-1,-1,-1,-1,-1,-1],"loss_changes":[1.2029111E2,3.275602E1,8.680524E1,3.2371056E1,1.0167618E0,6.0901085E1,6.1391712E1,5.9913635E-1,4.7590996E1,0E0,3.6609097E0,4.875658E0,5.9309105E1,4.457405E0,4.393858E1,0E0,0E0,2.1674923E1,9.16452E0,0E0,0E0,0E0,8.715079E0,4.1597855E1,1.1399357E1,0E0,3.981575E0,5.9994305E1,1.6991642E1,1.7305077E1,0E0,5.28932E0,1.8637085E0,0E0,0E0,3.5755463E1,4.2217594E1,8.448993E0,0E0,1.0084965E1,0E0,1.8439213E1,2.0943382E1,1.1310219E1,6.0084534E-1,0E0,0E0,0E0,0E0,0E0,0E0,0E0,0E0,0E0,0E0,0E0,0E0,0E0,0E0,0E0,0E0,0E0,0E0,0E0,0E0,0E0,0E0],"parents":[2147483647,0,0,1,1,2,2,3,3,4,4,5,5,6,6,7,7,8,8,10,10,11,11,12,12,13,13,14,14,17,17,18,18,22,22,23,23,24,24,26,26,27,27,28,28,29,29,31,31,32,32,35,35,36,36,37,37,39,39,41,41,42,42,43,43,44,44],"right_children":[2,4,6,8,10,12,14,16,18,-1,20,22,24,26,28,-1,-1,30,32,-1,-1,-1,34,36,38,-1,40,42,44,46,-1,48,50,-1,-1,52,54,56,-1,58,-1,60,62,64,66,-1,-1,-1,-1,-1,-1,-1,-1,-1,-1,-1,-1,-1,-1,-1,-1,-1,-1,-1,-1,-1,-1],"split_conditions":[6.1959755E-2,3.12526E2,2.4375514E2,1.9999842E4,8.35E4,2.4396228E2,6.0838394E0,1.1964789E1,1.9999951E4,-3.6787277E-1,3.2107172E2,4.708798E-7,2.9462879E4,2.44E4,1E2,-3.8972545E-1,-1.1162744E-1,2.8083643E2,2.7763797E2,1.8218774E-1,-3.0915886E-1,-4.0949425E-1,2.7850116E2,2.8791278E2,2.408146E4,8.030394E-2,2.1524348E2,2.1628444E-3,5.3831154E-6,6.59E1,-3.2673693E-1,7.63E1,1.9999975E4,-3.5313058E-1,3.013735E-1,1.76E0,8.997431E1,9.55E1,-3.8029328E-1,2.434E2,-4.0315777E-1,2.8449918E2,8.3635826E1,9.58154E-1,4.7322145E0,-2.9370043E-1,2.601237E-1,-2.821482E-1,1.3888517E-1,-1.2982234E-1,-3.935599E-1,2.4531703E-1,-2.934925E-1,1.5154153E-1,-4.4197804E-1,2.4165495E-1,-3.4375042E-1,1.6659114E-1,-3.6130625E-1,8.877689E-2,-3.673217E-1,2.2573537E-1,-3.526743E-1,-3.5181087E-1,2.3826194E-1,-1.2940148E-1,-5.274761E-1],"split_indices":[24,17,37,39,6,10,56,9,39,0,17,27,19,7,23,0,0,15,31,0,0,0,31,13,26,0,17,28,27,16,0,16,39,0,0,21,51,35,0,44,0,33,3,55,24,0,0,0,0,0,0,0,0,0,0,0,0,0,0,0,0,0,0,0,0,0,0],"split_type":[0,0,0,0,0,0,0,0,0,0,0,0,0,0,0,0,0,0,0,0,0,0,0,0,0,0,0,0,0,0,0,0,0,0,0,0,0,0,0,0,0,0,0,0,0,0,0,0,0,0,0,0,0,0,0,0,0,0,0,0,0,0,0,0,0,0,0],"sum_hessian":[8.6196014E2,2.086288E2,6.533313E2,1.2935449E2,7.9274315E1,4.2607523E2,2.272561E2,3.0493107E1,9.886139E1,7.495959E1,4.3147287E0,2.2748495E1,4.0332672E2,6.2084053E1,1.6517206E2,2.8777096E1,1.7160121E0,5.992486E1,3.8936527E1,1.2627447E0,3.051984E0,1.729512E1,5.4533753E0,3.76252E2,2.7074709E1,1.7855973E0,6.0298454E1,1.3780751E2,2.7364552E1,5.292736E1,6.9974966E0,9.437061E0,2.9499468E1,3.1328137E0,2.320562E0,3.3296527E2,4.3286724E1,7.788739E0,1.928597E1,1.2909165E1,4.738929E1,3.85832E1,9.9224304E1,9.893752E0,1.74708E1,4.8314667E0,4.8095894E1,3.3185532E0,6.118508E0,4.0542173E0,2.544525E1,3.2229706E2,1.0668228E1,2.647784E1,1.6808886E1,5.3742905E0,2.414449E0,4.1756253E0,8.73354E0,1.0534014E1,2.8049185E1,9.4111206E1,5.113104E0,4.184912E0,5.70884E0,1.1323407E0,1.6338459E1],"tree_param":{"num_deleted":"0","num_feature":"58","num_nodes":"67","size_leaf_vector":"1"}},{"base_weights":[-4.0439665E-2,-7.054691E-1,1.4328584E-1,-8.308177E-1,3.9182705E-1,2.988992E-1,-6.5841E-1,-9.310723E-1,4.3776315E-1,9.1794366E-1,-3.2411218E-1,-7.9177576E-1,4.1399205E-1,9.234061E-1,-9.235573E-1,-4.4611534E-1,-1.3768599E0,8.531461E-1,-2.697343E-1,-1.4203008E-1,3.2287633E-1,-4.005729E-2,-9.919094E-1,-1.9153194E-1,5.986964E-1,-1.9523484E-1,3.4109715E-1,1.0766624E-1,-1.1789515E0,3.871202E-1,-1.1093414E0,-1.5385125E0,-1.0386646E0,2.5153693E-2,2.9492548E-1,6.6947067E-1,-7.730028E-1,-1.0657953E0,4.644437E-2,7.5815237E-1,-1.0982426E0,6.794876E-1,-6.8523645E-1,-3.2323766E-1,7.436458E-1,-6.864326E-1,-1.4212971E0,-2.981648E-1,2.2244598E-1,-6.465963E-2,-3.4073043E-1,-4.837916E-1,-2.6758435E-1,1.24336116E-1,-3.3978105E-1,-3.534987E-2,2.5610116E-1,-2.733988E-1,-1.8381298E-2,1.5801819E-2,-3.3415985E-1,1.8164533E-1,-1.8258007E-1,2.8721702E-1,-3.210804E-1,-1.5620005E-1,-4.170247E-1,-5.9406932E-2,2.3736821E-1,-4.043141E-1,7.262926E-2,3.1442583E-1,-2.2778596E-1,1.15490206E-1,-3.031942E-1,7.34569E-2,-4.4216084E-1],"categories":[],"categories_nodes":[],"categories_segments":[],"categories_sizes":[],"default_left":[0,0,0,0,0,0,0,0,0,0,0,0,0,0,0,0,0,0,0,0,0,0,0,0,0,0,0,0,0,0,0,0,0,0,0,0,0,0,0,0,0,0,0,0,0,0,0,0,0,0,0,0,0,0,0,0,0,0,0,0,0,0,0,0,0,0,0,0,0,0,0,0,0,0,0,0,0],"id":6,"left_children":[1,3,5,7,9,11,13,15,17,19,-1,21,23,25,27,29,31,33,-1,-1,-1,35,37,39,41,-1,-1,43,45,47,49,51,53,-1,-1,55,57,59,61,63,65,67,69,-1,71,73,75,-1,-1,-1,-1,-1,-1,-1,-1,-1,-1,-1,-1,-1,-1,-1,-1,-1,-1,-1,-1,-1,-1,-1,-1,-1,-1,-1,-1,-1,-1],"loss_changes":[9.0527565E1,2.2383919E1,7.264415E1,1.8753601E1,1.4253035E1,6.14615E1,4.0575436E1,2.8356216E1,7.0117493E0,3.4070234E0,0E0,7.005455E0,4.9457527E1,5.4794655E0,2.1621323E1,3.67161E1,2.1930084E0,8.2648945E-1,0E0,0E0,0E0,6.1798983E0,2.8836098E0,9.0279976E1,3.5557907E1,0E0,0E0,1.3702294E1,6.8420486E0,1.5341394E1,6.2491226E-1,7.106552E-1,3.9507961E0,0E0,0E0,9.8063827E-1,5.1713514E-1,1.9151306E0,1.618043E0,1.9722872E1,8.30246E0,3.1413696E1,1.29357395E1,0E0,6.1632013E0,8.563845E0,4.1241684E0,0E0,0E0,0E0,0E0,0E0,0E0,0E0,0E0,0E0,0E0,0E0,0E0,0E0,0E0,0E0,0E0,0E0,0E0,0E0,0E0,0E0,0E0,0E0,0E0,0E0,0E0,0E0,0E0,0E0,0E0],"parents":[2147483647,0,0,1,1,2,2,3,3,4,4,5,5,6,6,7,7,8,8,9,9,11,11,12,12,13,13,14,14,15,15,16,16,17,17,21,21,22,22,23,23,24,24,27,27,28,28,29,29,30,30,31,31,32,32,35,35,36,36,37,37,38,38,39,39,40,40,41,41,42,42,44,44,45,45,46,46],"right_children":[2,4,6,8,10,12,14,16,18,20,-1,22,24,26,28,30,32,34,-1,-1,-1,36,38,40,42,-1,-1,44,46,48,50,52,54,-1,-1,56,58,60,62,64,66,68,70,-1,72,74,76,-1,-1,-1,-1,-1,-1,-1,-1,-1,-1,-1,-1,-1,-1,-1,-1,-1,-1,-1,-1,-1,-1,-1,-1,-1,-1,-1,-1,-1,-1],"split_conditions":[1.713447E-2,8.35E4,8.74E1,6.3382186E-2,2.8255826E2,6.7408316E-2,2.586598E2,4.455782E0,8.7827385E1,6.1959755E-2,-3.2411218E-1,1.7042198E2,6.0838394E0,8.510097E4,1.1969373E3,1.3428542E3,2.831142E2,8.56E1,-2.697343E-1,-1.4203008E-1,3.2287633E-1,5E0,1.7527783E0,5.64E1,1.0440983E0,-1.9523484E-1,3.4109715E-1,1.19611E3,6.773065E1,1.3415222E3,2.7567535E2,1.65E0,2.83393E2,2.5153693E-2,2.9492548E-1,6.755795E1,2.787528E2,1.2636283E-1,5.9770026E0,2.8462656E2,6.68E1,1.2397388E1,2.7557E2,-3.2323766E-1,3.8E1,4.229959E3,1.3912412E0,-2.981648E-1,2.2244598E-1,-6.465963E-2,-3.4073043E-1,-4.837916E-1,-2.6758435E-1,1.24336116E-1,-3.3978105E-1,-3.534987E-2,2.5610116E-1,-2.733988E-1,-1.8381298E-2,1.5801819E-2,-3.3415985E-1,1.8164533E-1,-1.8258007E-1,2.8721702E-1,-3.210804E-1,-1.5620005E-1,-4.170247E-1,-5.9406932E-2,2.3736821E-1,-4.043141E-1,7.262926E-2,3.1442583E-1,-2.2778596E-1,1.15490206E-1,-3.031942E-1,7.34569E-2,-4.4216084E-1],"split_indices":[23,6,36,28,34,25,47,25,51,24,0,52,56,7,39,5,12,50,0,0,0,23,28,36,21,0,0,39,16,5,34,21,12,0,0,16,45,23,9,34,36,40,49,0,41,43,9,0,0,0,0,0,0,0,0,0,0,0,0,0,0,0,0,0,0,0,0,0,0,0,0,0,0,0,0,0,0],"split_type":[0,0,0,0,0,0,0,0,0,0,0,0,0,0,0,0,0,0,0,0,0,0,0,0,0,0,0,0,0,0,0,0,0,0,0,0,0,0,0,0,0,0,0,0,0,0,0,0,0,0,0,0,0,0,0,0,0,0,0,0,0,0,0,0,0,0,0,0,0,0,0,0,0,0,0,0,0],"sum_hessian":[7.390914E2,1.5937251E2,5.797189E2,1.4325117E2,1.6121325E1,4.8600912E2,9.3709755E1,1.3300592E2,1.024526E1,1.2154267E1,3.9670568E0,4.5829292E1,4.4017984E2,1.3096431E1,8.061333E1,6.466253E1,6.834339E1,8.092627E0,2.1526337E0,1.038291E0,1.1115976E1,9.888274E0,3.594102E1,1.02877E2,3.3730283E2,1.3200747E0,1.1776356E1,1.6116604E1,6.449672E1,2.884269E1,3.581984E1,4.383954E1,2.4503853E1,1.407113E0,6.685514E0,5.0684056E0,4.819868E0,3.352879E1,2.4122288E0,5.0327778E1,5.254922E1,3.1777753E2,1.9525297E1,5.385935E0,1.0730668E1,2.2533777E1,4.1962944E1,5.521224E0,2.3321465E1,1.2915827E0,3.4528255E1,3.798997E1,5.8495693E0,1.2807206E0,2.3223133E1,1.0292983E0,4.0391073E0,3.8007467E0,1.0191213E0,1.3777118E0,3.2151077E1,1.3423097E0,1.0699191E0,4.5812145E1,4.515633E0,1.8573917E1,3.3975304E1,3.5807003E1,2.8197055E2,1.1124649E1,8.400647E0,9.174818E0,1.5558503E0,5.1912827E0,1.7342495E1,1.1716858E0,4.079126E1],"tree_param":{"num_deleted":"0","num_feature":"58","num_nodes":"77","size_leaf_vector":"1"}},{"base_weights":[-4.160505E-2,-3.4839672E-1,3.1704575E-1,-2.6714318E-3,-1.2410586E0,5.485529E-1,-7.892262E-1,-5.507357E-1,4.5478627E-1,-1.2870349E0,2.9180568E-1,6.359837E-1,-1.0428622E0,2.7614418E-1,-1.0765477E0,-1.3211432E0,-1.2419506E-1,-3.851073E-1,5.829642E-1,-3.3744702E-1,-1.4514778E0,-1.2097008E-1,2.1705842E-1,-7.953212E-1,7.297516E-1,3.541466E-2,-3.4479445E-1,8.005924E-1,-7.115576E-1,-2.704651E-1,-1.4493773E0,-1.3597437E0,1.6760375E-2,4.9415195E-1,-5.870914E-1,6.649019E-1,-4.832658E-1,-1.5861319E0,-8.950162E-1,2.36396E-1,-3.6337182E-1,7.886444E-1,-9.2359346E-1,2.9039386E-1,-4.4777688E-2,-2.5671655E-1,-3.0739011E-2,-6.649804E-1,7.3078215E-1,-1.5077457E0,-8.175785E-3,-9.711182E-2,-4.1372797E-1,-3.9135298E-1,2.547272E-1,-2.9514927E-1,2.400875E-1,2.3235214E-1,-2.6655966E-1,-3.1207857E-1,-5.204302E-1,7.871504E-2,-3.1493837E-1,2.714114E-1,1.555305E-2,2.1820305E-1,-4.593185E-1,2.8431585E-2,-3.3569893E-1,6.1620362E-2,2.4848355E-1,-4.686533E-1,-1.7102596E-1],"categories":[],"categories_nodes":[],"categories_segments":[],"categories_sizes":[],"default_left":[0,0,0,0,0,0,0,0,0,0,0,0,0,0,0,0,0,0,0,0,0,0,0,0,0,0,0,0,0,0,0,0,0,0,0,0,0,0,0,0,0,0,0,0,0,0,0,0,0,0,0,0,0,0,0,0,0,0,0,0,0,0,0,0,0,0,0,0,0,0,0,0,0],"id":7,"left_children":[1,3,5,7,9,11,13,15,17,19,21,23,25,27,29,31,33,-1,35,-1,37,-1,-1,39,41,-1,-1,43,45,47,49,51,-1,53,55,57,-1,59,61,-1,-1,63,65,-1,-1,-1,-1,67,69,71,-1,-1,-1,-1,-1,-1,-1,-1,-1,-1,-1,-1,-1,-1,-1,-1,-1,-1,-1,-1,-1,-1,-1],"loss_changes":[7.001426E1,1.0581691E2,7.558142E1,6.2469166E1,7.1216583E0,3.4506676E1,1.5966082E1,3.7084953E1,3.1011593E1,8.512726E-1,1.3727754E0,3.1608368E1,1.7479267E0,6.6139464E0,1.178532E1,2.2175446E0,2.1489159E1,0E0,2.3931496E1,0E0,1.7872696E0,0E0,0E0,1.0630149E1,2.1906006E1,0E0,0E0,1.431077E0,3.1416726E-1,6.033284E0,2.2395973E0,3.4003448E-1,0E0,2.169676E1,2.4352596E1,2.1682068E1,0E0,8.862381E-1,2.180379E0,0E0,0E0,1.7958313E1,9.0779915E0,0E0,0E0,0E0,0E0,3.7616253E0,5.7600975E-2,4.55513E-1,0E0,0E0,0E0,0E0,0E0,0E0,0E0,0E0,0E0,0E0,0E0,0E0,0E0,0E0,0E0,0E0,0E0,0E0,0E0,0E0,0E0,0E0,0E0],"parents":[2147483647,0,0,1,1,2,2,3,3,4,4,5,5,6,6,7,7,8,8,9,9,10,10,11,11,12,12,13,13,14,14,15,15,16,16,18,18,20,20,23,23,24,24,27,27,28,28,29,29,30,30,31,31,33,33,34,34,35,35,37,37,38,38,41,41,42,42,47,47,48,48,49,49],"right_children":[2,4,6,8,10,12,14,16,18,20,22,24,26,28,30,32,34,-1,36,-1,38,-1,-1,40,42,-1,-1,44,46,48,50,52,-1,54,56,58,-1,60,62,-1,-1,64,66,-1,-1,-1,-1,68,70,72,-1,-1,-1,-1,-1,-1,-1,-1,-1,-1,-1,-1,-1,-1,-1,-1,-1,-1,-1,-1,-1,-1,-1],"split_conditions":[2.1628444E-3,2.871272E2,1E2,9.7481735E1,1.1020229E1,2.9246576E2,6.441339E-7,1.5196869E1,4.88E4,7.31E1,2.6895865E2,2.6741907E2,1.7351397E0,1.8397523E-1,6.59E1,2.4135338E4,1.5593369E3,-3.851073E-1,9.56E1,-3.3744702E-1,2.6222923E1,-1.2097008E-1,2.1705842E-1,5.08E1,8.8946876E-4,3.541466E-2,-3.4479445E-1,1.8495222E2,7.106328E-2,9.841002E1,2.8668628E2,3.1041758E4,1.6760375E-2,8.510097E4,2.6320697E2,3.7981137E2,-4.832658E-1,9.002864E0,1.1965763E3,2.36396E-1,-3.6337182E-1,8.794635E1,2.850088E2,2.9039386E-1,-4.4777688E-2,-2.5671655E-1,-3.0739011E-2,3.1254372E-1,9.045927E0,-9.675535E2,-8.175785E-3,-9.711182E-2,-4.1372797E-1,-3.9135298E-1,2.547272E-1,-2.9514927E-1,2.400875E-1,2.3235214E-1,-2.6655966E-1,-3.1207857E-1,-5.204302E-1,7.871504E-2,-3.1493837E-1,2.714114E-1,1.555305E-2,2.1820305E-1,-4.593185E-1,2.8431585E-2,-3.3569893E-1,6.1620362E-2,2.4848355E-1,-4.686533E-1,-1.7102596E-1],"split_indices":[28,33,23,50,56,33,27,57,6,35,46,30,9,28,16,26,4,0,35,0,42,0,0,36,54,0,0,43,21,50,31,7,0,7,44,17,0,40,39,0,0,36,33,0,0,0,0,28,56,0,0,0,0,0,0,0,0,0,0,0,0,0,0,0,0,0,0,0,0,0,0,0,0],"split_type":[0,0,0,0,0,0,0,0,0,0,0,0,0,0,0,0,0,0,0,0,0,0,0,0,0,0,0,0,0,0,0,0,0,0,0,0,0,0,0,0,0,0,0,0,0,0,0,0,0,0,0,0,0,0,0,0,0,0,0,0,0,0,0,0,0,0,0,0,0,0,0,0,0],"sum_hessian":[6.343096E2,3.4188663E2,2.924229E2,2.4716383E2,9.472282E1,2.4223506E2,5.0187855E1,1.123533E2,1.3481053E2,9.212017E1,2.6026468E0,2.3018906E2,1.204601E1,1.0668526E1,3.951933E1,3.9290466E1,7.3062836E1,8.638028E0,1.261725E2,5.032161E1,4.1798557E1,1.0224962E0,1.5801506E0,1.3692973E1,2.1649608E2,1.0026581E0,1.1043352E1,7.0921736E0,3.5763516E0,1.3043609E1,2.6475721E1,3.82313E1,1.0591656E0,3.1250376E1,4.1812458E1,1.223016E2,3.8708973E0,3.216483E1,9.63373E0,2.6625736E0,1.1030399E1,2.0955466E2,6.9414206E0,6.0133834E0,1.0787904E0,2.5644689E0,1.0118828E0,9.597724E0,3.4458845E0,2.5374083E1,1.1016386E0,1.0259812E0,3.720532E1,4.7095065E0,2.6540869E1,3.2740715E1,9.071744E0,1.14709496E2,7.592104E0,8.595651E0,2.3569178E1,1.0543442E0,8.579386E0,1.808409E2,2.8713764E1,1.8140305E0,5.12739E0,3.8860497E0,5.7116747E0,1.0256572E0,2.4202273E0,2.3352419E1,2.0216634E0],"tree_param":{"num_deleted":"0","num_feature":"58","num_nodes":"73","size_leaf_vector":"1"}},{"base_weights":[-4.5583006E-2,-4.0664068E-1,2.1036217E-1,-1.3904285E-1,-1.0024021E0,4.2980212E-1,-3.0189827E-1,5.2003074E-2,-9.8415965E-1,-3.4501943E-1,-3.212001E-1,-1.0853195E0,5.008533E-1,3.5138386E-1,-7.614732E-1,-6.524817E-1,5.039424E-1,8.2590945E-2,-1.2767211E0,-3.4230736E-1,5.3473336E-1,-3.540242E-1,-5.0028108E-2,5.7107395E-1,-7.8253275E-1,5.389885E-1,-9.399516E-1,-1.3309044E0,-3.834818E-1,-1.7148073E-1,-1.0698795E0,-3.3629018E-1,6.321516E-1,-2.382753E-1,6.1711663E-1,-4.5487496E-1,-4.3961993E-1,-2.0211016E-1,2.732068E-1,6.416245E-1,-5.389944E-1,3.1635267E-1,-3.4446156E-1,6.77297E-1,-3.6226362E-1,-6.235382E-2,-3.2403594E-1,-4.3839228E-1,-2.8592488E-1,-1.202978E0,6.635001E-2,-2.3950586E-1,8.0504164E-2,-3.531385E-1,-1.5910946E-2,-2.9040968E-1,2.2680542E-1,2.2754702E-1,9.600574E-3,-2.8208834E-1,1.8968154E-1,-1.745811E-1,2.0568275E-1,-4.0026733E-1,8.5070625E-2,-9.1175705E-2,2.0443217E-1,2.389042E-1,-2.5402302E-1,-2.4906924E-1,1.2704234E-1,-6.8509735E-2,-3.986185E-1,1.4679214E-1,-3.6869442E-1],"categories":[],"categories_nodes":[],"categories_segments":[],"categories_sizes":[],"default_left":[0,0,0,0,0,0,0,0,0,0,0,0,0,0,0,0,0,0,0,0,0,0,0,0,0,0,0,0,0,0,0,0,0,0,0,0,0,0,0,0,0,0,0,0,0,0,0,0,0,0,0,0,0,0,0,0,0,0,0,0,0,0,0,0,0,0,0,0,0,0,0,0,0,0,0],"id":8,"left_children":[1,3,5,7,9,11,13,15,17,-1,19,21,23,25,27,29,31,33,35,-1,37,-1,-1,39,41,43,45,47,49,51,53,-1,55,-1,57,59,-1,-1,-1,61,63,65,-1,67,-1,-1,-1,-1,69,71,73,-1,-1,-1,-1,-1,-1,-1,-1,-1,-1,-1,-1,-1,-1,-1,-1,-1,-1,-1,-1,-1,-1,-1,-1],"loss_changes":[5.005044E1,3.5671577E1,3.5770035E1,2.5264917E1,6.6176376E0,2.448322E1,2.8991821E1,4.1184235E1,9.107237E0,0E0,1.0267279E1,6.977701E-1,1.9651894E1,1.0244137E1,1.1646191E1,9.972351E0,1.7111652E1,3.8399854E0,2.8528366E0,0E0,3.9817176E0,0E0,0E0,1.621479E1,4.9750795E0,9.449127E0,3.361163E-1,2.5976067E0,1.3111266E1,7.022374E0,2.870287E0,0E0,1.5323553E1,0E0,3.8958025E-1,3.5961323E0,0E0,0E0,0E0,1.067688E1,8.654307E0,1.0335667E0,0E0,6.7978134E0,0E0,0E0,0E0,0E0,1.7796168E0,1.2383385E0,1.3624491E1,0E0,0E0,0E0,0E0,0E0,0E0,0E0,0E0,0E0,0E0,0E0,0E0,0E0,0E0,0E0,0E0,0E0,0E0,0E0,0E0,0E0,0E0,0E0,0E0],"parents":[2147483647,0,0,1,1,2,2,3,3,4,4,5,5,6,6,7,7,8,8,10,10,11,11,12,12,13,13,14,14,15,15,16,16,17,17,18,18,20,20,23,23,24,24,25,25,26,26,27,27,28,28,29,29,30,30,32,32,34,34,35,35,39,39,40,40,41,41,43,43,48,48,49,49,50,50],"right_children":[2,4,6,8,10,12,14,16,18,-1,20,22,24,26,28,30,32,34,36,-1,38,-1,-1,40,42,44,46,48,50,52,54,-1,56,-1,58,60,-1,-1,-1,62,64,66,-1,68,-1,-1,-1,-1,70,72,74,-1,-1,-1,-1,-1,-1,-1,-1,-1,-1,-1,-1,-1,-1,-1,-1,-1,-1,-1,-1,-1,-1,-1,-1],"split_conditions":[6.068437E0,2.8765247E2,1E2,2.0000004E4,2.720024E1,7.05885E1,2.1358023E2,1.999985E4,1.7906588E3,-3.4501943E-1,6.3382186E-2,2.8732547E2,2.9150296E2,8.97E1,1.4214032E1,8.663456E1,1.902534E3,1.6475395E1,3.8892283E0,-3.4230736E-1,2.7701654E2,-3.540242E-1,-5.0028108E-2,6.3E1,3.0730262E0,9.911471E1,1.16029415E1,3.6469912E3,2.1628444E-3,1.6062243E-1,2.8741888E2,-3.3629018E-1,8E0,-2.382753E-1,2.4135E4,9.802653E1,-4.3961993E-1,-2.0211016E-1,2.732068E-1,9.002864E0,8.500052E4,9.136815E1,-3.4446156E-1,8.4E1,-3.6226362E-1,-6.235382E-2,-3.2403594E-1,-4.3839228E-1,8.59E1,6.485425E1,4.4754834E2,-2.3950586E-1,8.0504164E-2,-3.531385E-1,-1.5910946E-2,-2.9040968E-1,2.2680542E-1,2.2754702E-1,9.600574E-3,-2.8208834E-1,1.8968154E-1,-1.745811E-1,2.0568275E-1,-4.0026733E-1,8.5070625E-2,-9.1175705E-2,2.0443217E-1,2.389042E-1,-2.5402302E-1,-2.4906924E-1,1.2704234E-1,-6.8509735E-2,-3.986185E-1,1.4679214E-1,-3.6869442E-1],"split_indices":[24,33,24,39,57,50,17,39,22,0,28,31,33,36,57,37,38,1,56,0,11,0,0,40,9,50,40,4,28,24,33,0,40,0,26,50,0,0,0,40,7,35,0,41,0,0,0,0,16,16,37,0,0,0,0,0,0,0,0,0,0,0,0,0,0,0,0,0,0,0,0,0,0,0,0],"split_type":[0,0,0,0,0,0,0,0,0,0,0,0,0,0,0,0,0,0,0,0,0,0,0,0,0,0,0,0,0,0,0,0,0,0,0,0,0,0,0,0,0,0,0,0,0,0,0,0,0,0,0,0,0,0,0,0,0,0,0,0,0,0,0,0,0,0,0,0,0,0,0,0,0,0,0],"sum_hessian":[5.3968146E2,2.2362648E2,3.16055E2,1.5516464E2,6.846184E1,2.213815E2,9.467349E1,1.2732108E2,2.7843561E1,5.569965E1,1.2762187E1,9.277143E0,2.1210437E2,3.919439E1,5.54791E1,4.958463E1,7.773645E1,6.1471705E0,2.169639E1,6.348466E0,6.4137206E0,8.151503E0,1.12564E0,2.0162732E2,1.0477042E1,3.473126E1,4.46313E0,2.1128597E1,3.4350502E1,2.369259E1,2.5892038E1,5.118746E0,7.261771E1,2.1440873E0,4.003083E0,4.687862E0,1.700853E1,1.3339721E0,5.0797486E0,1.899754E2,1.1651924E1,2.6495943E0,7.8274474E0,3.2749985E1,1.9812753E0,1.1161668E0,3.3469632E0,1.8430273E1,2.6983256E0,1.1579988E1,2.2770515E1,9.43296E0,1.4259631E1,2.3279106E1,2.6129334E0,4.7276664E0,6.789004E1,2.9854414E0,1.0176419E0,3.3341975E0,1.3536646E0,6.1678615E0,1.8380754E2,5.608123E0,6.043802E0,1.043785E0,1.6058093E0,3.0819962E1,1.930022E0,1.4304471E0,1.2678784E0,1.6451869E0,9.9348E0,1.7634634E1,5.135882E0],"tree_param":{"num_deleted":"0","num_feature":"58","num_nodes":"75","size_leaf_vector":"1"}},{"base_weights":[-5.345554E-2,1.474146E-1,-4.5454532E-1,-7.144966E-1,2.5452852E-1,-9.9414045E-1,-1.6779441E-2,-3.1488323E-1,-4.492713E-2,3.764021E-1,-5.6674147E-1,-1.2813544E0,-2.7990156E-1,4.5254275E-1,-6.123533E-1,6.7119914E-1,-5.315939E-1,4.9417654E-1,-4.411743E-1,-1.2658769E0,4.992957E-1,-8.7616846E-2,-1.3129029E0,-1.0498606E0,5.693197E-1,-3.3949745E-1,6.9949454E-1,-9.804333E-1,4.2768154E-2,-2.4783234E-3,2.4730588E-1,-3.154505E-1,3.962524E-1,-2.1205379E-1,6.240408E-1,-8.6739965E-2,-1.0865972E0,-1.5606287E-1,-4.4556913E-1,8.708951E-1,-3.4077907E-1,-9.4670475E-1,-1.4360266E0,-8.9357294E-2,-3.2788303E-1,8.45215E-1,-2.2682534E-1,1.0105578E0,-6.0750234E-1,-4.4732726E-1,-1.2861902E0,-3.5025784E-1,4.537682E-1,-8.790621E-2,2.3497829E-1,-2.5351465E-1,8.5475326E-2,-2.9431966E-1,2.0346287E-1,-3.5496488E-1,7.9725295E-2,-7.7071466E-2,-3.461381E-1,2.0285748E-1,-2.5561094E-1,2.917517E-1,-2.4551341E-2,-3.2257527E-1,-1.3451622E-1,-4.5370874E-1,-2.2690953E-1,3.0071523E-2,2.795889E-1,3.208987E-1,-1.4774626E-1,1.86859E-1,-3.177787E-1,-3.144147E-1,7.645571E-2,-1.4070186E-1,-4.0253264E-1,-2.1279818E-1,2.2656482E-1],"categories":[],"categories_nodes":[],"categories_segments":[],"categories_sizes":[],"default_left":[0,0,0,0,0,0,0,0,0,0,0,0,0,0,0,0,0,0,0,0,0,0,0,0,0,0,0,0,0,0,0,0,0,0,0,0,0,0,0,0,0,0,0,0,0,0,0,0,0,0,0,0,0,0,0,0,0,0,0,0,0,0,0,0,0,0,0,0,0,0,0,0,0,0,0,0,0,0,0,0,0,0,0],"id":9,"left_children":[1,3,5,7,9,11,13,-1,15,17,19,21,23,25,27,29,31,33,35,37,39,-1,41,43,45,-1,47,49,51,-1,-1,-1,53,55,57,59,61,63,-1,65,-1,67,69,-1,-1,71,-1,73,75,77,79,-1,81,-1,-1,-1,-1,-1,-1,-1,-1,-1,-1,-1,-1,-1,-1,-1,-1,-1,-1,-1,-1,-1,-1,-1,-1,-1,-1,-1,-1,-1,-1],"loss_changes":[3.7743282E1,2.90185E1,3.69023E1,7.758816E0,2.8094452E1,1.3998535E1,2.4680449E1,0E0,4.7650185E0,2.3632088E1,2.7757E1,1.1657333E0,1.4558856E1,2.0119183E1,9.422745E0,5.8536816E-1,4.318658E0,1.9668972E1,7.030739E0,5.187828E0,1.0184199E1,0E0,7.96402E-1,4.8661232E-2,4.5889196E0,0E0,1.824176E1,3.491476E0,7.967725E0,0E0,0E0,0E0,1.1981238E0,1.0883868E1,1.633178E1,8.505124E0,3.1430054E-1,3.3514547E0,0E0,1.3280249E0,0E0,4.7655392E-1,6.123047E-1,0E0,0E0,5.148816E-1,0E0,3.671486E0,5.6400194E0,4.7497907E0,6.6698074E-2,0E0,4.7017784E0,0E0,0E0,0E0,0E0,0E0,0E0,0E0,0E0,0E0,0E0,0E0,0E0,0E0,0E0,0E0,0E0,0E0,0E0,0E0,0E0,0E0,0E0,0E0,0E0,0E0,0E0,0E0,0E0,0E0,0E0],"parents":[2147483647,0,0,1,1,2,2,3,3,4,4,5,5,6,6,8,8,9,9,10,10,11,11,12,12,13,13,14,14,15,15,16,16,17,17,18,18,19,19,20,20,22,22,23,23,24,24,26,26,27,27,28,28,32,32,33,33,34,34,35,35,36,36,37,37,39,39,41,41,42,42,45,45,47,47,48,48,49,49,50,50,52,52],"right_children":[2,4,6,8,10,12,14,-1,16,18,20,22,24,26,28,30,32,34,36,38,40,-1,42,44,46,-1,48,50,52,-1,-1,-1,54,56,58,60,62,64,-1,66,-1,68,70,-1,-1,72,-1,74,76,78,80,-1,82,-1,-1,-1,-1,-1,-1,-1,-1,-1,-1,-1,-1,-1,-1,-1,-1,-1,-1,-1,-1,-1,-1,-1,-1,-1,-1,-1,-1,-1,-1],"split_conditions":[3.154395E2,6.1807648E1,8.510097E4,9.848574E-6,9.95E1,2.767933E2,8.58E4,-3.1488323E-1,3.1027785E-1,1E2,5.1002502E1,2.753E2,8.3408753E-7,1.4214032E1,1.0000944E1,9.86E1,2.6032843E2,1.713447E-2,7.8823945E3,1.8306047E-1,8.408558E0,-8.7616846E-2,8.37E4,2.852342E2,2.795E2,-3.3949745E-1,2.2E1,1.30961E3,2.29984E3,-2.4783234E-3,2.4730588E-1,-3.154505E-1,8E0,5.9097707E-5,4.589613E2,2.28832E3,2.7660727E2,2.3991781E4,-4.4556913E-1,1.34439E3,-3.4077907E-1,3.1254372E-1,5.580162E-7,-8.9357294E-2,-3.2788303E-1,3.744462E1,-2.2682534E-1,2.569E2,5.9097707E-5,3.60901E1,2.7013083E2,-3.5025784E-1,1.713447E-2,-8.790621E-2,2.3497829E-1,-2.5351465E-1,8.5475326E-2,-2.9431966E-1,2.0346287E-1,-3.5496488E-1,7.9725295E-2,-7.7071466E-2,-3.461381E-1,2.0285748E-1,-2.5561094E-1,2.917517E-1,-2.4551341E-2,-3.2257527E-1,-1.3451622E-1,-4.5370874E-1,-2.2690953E-1,3.0071523E-2,2.795889E-1,3.208987E-1,-1.4774626E-1,1.86859E-1,-3.177787E-1,-3.144147E-1,7.645571E-2,-1.4070186E-1,-4.0253264E-1,-2.1279818E-1,2.2656482E-1],"split_indices":[17,16,7,27,50,11,7,0,28,1,40,34,27,57,56,23,10,23,8,55,3,0,7,32,45,0,57,39,38,0,0,0,40,21,22,38,34,26,0,5,0,28,20,0,0,24,0,44,21,24,15,0,23,0,0,0,0,0,0,0,0,0,0,0,0,0,0,0,0,0,0,0,0,0,0,0,0,0,0,0,0,0,0],"split_type":[0,0,0,0,0,0,0,0,0,0,0,0,0,0,0,0,0,0,0,0,0,0,0,0,0,0,0,0,0,0,0,0,0,0,0,0,0,0,0,0,0,0,0,0,0,0,0,0,0,0,0,0,0,0,0,0,0,0,0,0,0,0,0,0,0,0,0,0,0,0,0,0,0,0,0,0,0,0,0,0,0,0,0],"sum_hessian":[4.666393E2,3.113462E2,1.552931E2,3.378873E1,2.7755746E2,6.898746E1,8.630565E1,2.2140165E1,1.1648564E1,2.4216301E2,3.539446E1,4.8635746E1,2.035171E1,4.8403244E1,3.790241E1,4.559751E0,7.0888133E0,2.1201688E2,3.0146133E1,2.1262493E1,1.4131966E1,1.8200511E0,4.6815697E1,1.055007E1,9.80164E0,6.044586E0,4.2358658E1,2.3949703E1,1.3952705E1,1.012757E0,3.546994E0,4.4577146E0,2.631099E0,3.2832672E1,1.791842E2,2.0192049E1,9.954083E0,3.7914102E0,1.7471083E1,1.1896047E1,2.235919E0,1.3966159E1,3.2849537E1,1.00048E0,9.54959E0,8.4127445E0,1.3888952E0,3.439864E1,7.9600153E0,9.627165E0,1.4322538E1,3.070409E0,1.0882297E1,1.033415E0,1.5976839E0,1.4132122E1,1.8700548E1,5.291043E0,1.7389316E2,4.338807E0,1.5853242E1,1.107139E0,8.846945E0,1.7395986E0,2.0518117E0,1.0730832E1,1.1652147E0,1.0181875E1,3.7842834E0,2.8431143E1,4.418393E0,1.1022577E0,7.310487E0,3.3374584E1,1.0240573E0,2.0360622E0,5.923953E0,4.922959E0,4.704206E0,1.5132434E0,1.2809295E1,1.9614072E0,8.920889E0],"tree_param":{"num_deleted":"0","num_feature":"58","num_nodes":"83","size_leaf_vector":"1"}},{"base_weights":[-5.881683E-2,-3.0354047E-1,2.1889478E-1,9.190397E-3,-9.974989E-1,4.0564767E-1,-6.4612466E-1,-8.344811E-1,2.1674784E-1,-1.1953969E0,1.4102107E-2,6.525523E-1,-8.187802E-3,2.8209975E-1,-8.5621184E-1,-9.6440665E-2,-3.7309918E-1,-4.8678967E-1,5.1360816E-1,-3.498692E-1,-3.738894E-1,-2.8683472E-1,5.662685E-1,7.313087E-1,-1.0768187E0,5.173873E-1,-3.5795024E-1,-2.0038135E-1,6.4739084E-1,-2.663685E-1,-1.0926901E0,3.32294E-1,-2.5575382E-1,-7.670256E-1,7.917344E-1,6.5320307E-1,-5.892258E-1,1.8697333E-1,-2.672833E-1,2.6582256E-1,-2.1712144E-1,-2.4245797E-1,7.9547143E-1,-1.0062675E-1,-3.6061063E-1,7.2367543E-1,-2.6046896E-1,7.8890316E-2,-1.3216014E0,2.5076675E-1,-2.3306742E-2,2.4730605E-1,-8.1898314E-1,-2.3434778E-1,-3.8133866E-1,-1.5380338E-1,1.741665E-1,5.9901882E-2,-2.9565778E-1,2.720803E-1,1.5953943E-2,-2.1371745E-1,2.1981053E-1,1.57826E-1,-3.1428227E-1,2.4990681E-1,-2.4171837E-1,-2.9673192E-1,2.719527E-1,1.2744148E-1,-2.426792E-1,-4.373394E-1,-7.770634E-2,-1.7559677E-1,1.7013939E-1,-7.256205E-2,-2.7488017E-1,9.898838E-2,-2.2318567E-1],"categories":[],"categories_nodes":[],"categories_segments":[],"categories_sizes":[],"default_left":[0,0,0,0,0,0,0,0,0,0,0,0,0,0,0,0,0,0,0,0,0,0,0,0,0,0,0,0,0,0,0,0,0,0,0,0,0,0,0,0,0,0,0,0,0,0,0,0,0,0,0,0,0,0,0,0,0,0,0,0,0,0,0,0,0,0,0,0,0,0,0,0,0,0,0,0,0,0,0],"id":10,"left_children":[1,3,5,7,9,11,13,15,17,19,21,23,25,27,29,31,-1,33,35,37,-1,-1,39,41,43,45,47,-1,49,51,53,55,-1,57,59,61,63,-1,-1,-1,-1,-1,65,-1,-1,67,-1,69,71,-1,-1,73,75,77,-1,-1,-1,-1,-1,-1,-1,-1,-1,-1,-1,-1,-1,-1,-1,-1,-1,-1,-1,-1,-1,-1,-1,-1,-1],"loss_changes":[2.7517174E1,4.6696213E1,3.092069E1,2.6322588E1,1.3397514E1,1.6016619E1,6.888137E0,8.843779E0,2.543872E1,1.9704132E0,6.929601E0,1.4156361E1,1.1130793E1,2.8765101E0,3.6202507E0,4.0664096E0,0E0,1.3613897E1,1.3517317E1,2.9589844E0,0E0,0E0,4.0355654E0,9.975216E0,3.126669E-2,7.5457935E0,1.5402973E1,0E0,8.295901E-1,2.8558712E0,2.7184505E0,2.0108805E0,0E0,6.593401E0,5.4891443E-1,8.793716E0,5.7198143E0,0E0,0E0,0E0,0E0,0E0,6.154831E0,0E0,0E0,7.6639347E0,0E0,8.313173E0,1.2710724E0,0E0,0E0,1.8264965E0,4.4210672E-2,1.5727773E0,0E0,0E0,0E0,0E0,0E0,0E0,0E0,0E0,0E0,0E0,0E0,0E0,0E0,0E0,0E0,0E0,0E0,0E0,0E0,0E0,0E0,0E0,0E0,0E0,0E0],"parents":[2147483647,0,0,1,1,2,2,3,3,4,4,5,5,6,6,7,7,8,8,9,9,10,10,11,11,12,12,13,13,14,14,15,15,17,17,18,18,19,19,22,22,23,23,24,24,25,25,26,26,28,28,29,29,30,30,31,31,33,33,34,34,35,35,36,36,42,42,45,45,47,47,48,48,51,51,52,52,53,53],"right_children":[2,4,6,8,10,12,14,16,18,20,22,24,26,28,30,32,-1,34,36,38,-1,-1,40,42,44,46,48,-1,50,52,54,56,-1,58,60,62,64,-1,-1,-1,-1,-1,66,-1,-1,68,-1,70,72,-1,-1,74,76,78,-1,-1,-1,-1,-1,-1,-1,-1,-1,-1,-1,-1,-1,-1,-1,-1,-1,-1,-1,-1,-1,-1,-1,-1,-1],"split_conditions":[2.1628444E-3,2.8585223E2,1E2,8.5E4,1.0000944E1,2.935095E2,7.41E1,2.1801683E2,4.4552044E-6,1.1966268E3,9.852407E1,9.368143E3,1.4901128E3,1.9999912E4,6.6576546E1,2.22E4,-3.7309918E-1,2.6427112E2,5.6E1,2.3492832E1,-3.738894E-1,-2.8683472E-1,5.1E0,6.7408316E-2,5.09E4,6.5E1,9.734082E1,-2.0038135E-1,2.241395E2,1.6947365E1,1.6807968E-6,2.5153E2,-2.5575382E-1,2.3830017E3,2.9026987E2,2.4093998E1,2.753E2,1.8697333E-1,-2.672833E-1,2.6582256E-1,-2.1712144E-1,-2.4245797E-1,2.926157E2,-1.0062675E-1,-3.6061063E-1,1.1960299E3,-2.6046896E-1,7.75E1,1.1020229E1,2.5076675E-1,-2.3306742E-2,9.002864E0,2.8418686E2,3.4873386E1,-3.8133866E-1,-1.5380338E-1,1.741665E-1,5.9901882E-2,-2.9565778E-1,2.720803E-1,1.5953943E-2,-2.1371745E-1,2.1981053E-1,1.57826E-1,-3.1428227E-1,2.4990681E-1,-2.4171837E-1,-2.9673192E-1,2.719527E-1,1.2744148E-1,-2.426792E-1,-4.373394E-1,-7.770634E-2,-1.7559677E-1,1.7013939E-1,-7.256205E-2,-2.7488017E-1,9.898838E-2,-2.2318567E-1],"split_indices":[28,34,23,7,56,17,36,17,54,39,50,8,39,39,16,19,0,44,40,40,0,0,25,25,7,3,51,0,17,57,27,29,0,22,14,40,34,0,0,0,0,0,33,0,0,39,0,36,56,0,0,40,34,43,0,0,0,0,0,0,0,0,0,0,0,0,0,0,0,0,0,0,0,0,0,0,0,0,0],"split_type":[0,0,0,0,0,0,0,0,0,0,0,0,0,0,0,0,0,0,0,0,0,0,0,0,0,0,0,0,0,0,0,0,0,0,0,0,0,0,0,0,0,0,0,0,0,0,0,0,0,0,0,0,0,0,0,0,0,0,0,0,0,0,0,0,0,0,0,0,0,0,0,0,0,0,0,0,0,0,0],"sum_hessian":[4.029094E2,2.1412566E2,1.8878374E2,1.4828714E2,6.583852E1,1.5570001E2,3.3083714E1,2.8681833E1,1.196053E2,5.4914074E1,1.0924443E1,9.715692E1,5.8543095E1,6.0426793E0,2.7041035E1,1.06707535E1,1.801108E1,3.5302094E1,8.430321E1,3.5652096E0,5.134886E1,3.696939E0,7.2275047E0,9.347706E1,3.6798656E0,2.3200825E1,3.534227E1,1.4480718E0,4.594608E0,8.347191E0,1.8693844E1,7.167107E0,3.5036461E0,2.9283583E1,6.0185122E0,7.519309E1,9.110112E0,1.2197137E0,2.345496E0,6.0426016E0,1.1849031E0,3.276069E0,9.020099E1,1.0632428E0,2.6166227E0,2.0610146E1,2.5906775E0,2.495008E1,1.0392191E1,3.5253122E0,1.0692954E0,4.61234E0,3.7348506E0,3.6155078E0,1.5078337E1,1.3857028E0,5.781404E0,5.414534E0,2.3869047E1,5.009192E0,1.0093204E0,3.6986268E0,7.149447E1,2.6105478E0,6.4995646E0,8.860283E1,1.5981565E0,1.5625283E0,1.9047619E1,1.8329876E1,6.620204E0,8.88182E0,1.5103717E0,1.049626E0,3.562714E0,1.0416749E0,2.6931758E0,1.882947E0,1.7325609E0],"tree_param":{"num_deleted":"0","num_feature":"58","num_nodes":"79","size_leaf_vector":"1"}},{"base_weights":[-6.3377574E-2,2.0863026E-2,-7.1734864E-1,-1.4769715E-1,4.076593E-1,-2.9622826E-1,-1.0092863E0,-6.999858E-1,2.9775785E-2,5.5318266E-1,-8.3214855E-1,3.1502625E-1,-9.5533675E-1,-5.961919E-2,-3.2088727E-1,7.971714E-2,-9.869343E-1,1.6207999E-1,-8.0548954E-1,6.3936055E-1,-8.170473E-1,-3.5273373E-1,1.0641385E-1,7.730962E-1,-2.1372837E-1,-3.3408713E-1,-6.0188103E-2,-2.8336814E-1,5.484638E-1,2.804756E-1,-3.4903312E-1,-3.0627912E-1,2.3113677E-1,-4.2205927E-1,-3.0454147E-1,-6.9044906E-1,7.2446644E-1,-2.449297E-2,-3.011959E-1,-1.7566273E-1,1.8135934E-1,-1.4222633E-2,2.7475098E-1,2.5215197E-1,-2.0809475E-1,2.2241828E-1,-1.4137006E-1,-3.2116908E-1,8.85475E-2,1.278812E-1,-3.2883215E-1,-2.5382856E-1,-8.9388965E-3,2.3399387E-1,-2.2120863E-1],"categories":[],"categories_nodes":[],"categories_segments":[],"categories_sizes":[],"default_left":[0,0,0,0,0,0,0,0,0,0,0,0,0,0,0,0,0,0,0,0,0,0,0,0,0,0,0,0,0,0,0,0,0,0,0,0,0,0,0,0,0,0,0,0,0,0,0,0,0,0,0,0,0,0,0],"id":11,"left_children":[1,3,5,7,9,11,13,15,17,19,21,23,25,-1,-1,27,29,31,33,35,37,-1,39,41,-1,-1,-1,-1,43,45,-1,-1,47,-1,49,51,53,-1,-1,-1,-1,-1,-1,-1,-1,-1,-1,-1,-1,-1,-1,-1,-1,-1,-1],"loss_changes":[1.8875992E1,1.9897825E1,4.5076046E0,2.0863958E1,1.7170135E1,7.3200884E0,8.9637375E-1,1.1658215E1,1.8021297E1,1.0380871E1,3.3916554E0,5.1590066E0,8.076391E-1,0E0,0E0,7.6472077E0,8.806522E0,1.1721391E1,6.2909985E0,9.453274E0,6.575229E-1,0E0,1.6056287E0,8.927288E-1,0E0,0E0,0E0,0E0,4.507729E0,2.234083E0,0E0,0E0,1.14539995E1,0E0,8.244767E0,5.1672554E-1,6.6482735E0,0E0,0E0,0E0,0E0,0E0,0E0,0E0,0E0,0E0,0E0,0E0,0E0,0E0,0E0,0E0,0E0,0E0,0E0],"parents":[2147483647,0,0,1,1,2,2,3,3,4,4,5,5,6,6,7,7,8,8,9,9,10,10,11,11,12,12,15,15,16,16,17,17,18,18,19,19,20,20,22,22,23,23,28,28,29,29,32,32,34,34,35,35,36,36],"right_children":[2,4,6,8,10,12,14,16,18,20,22,24,26,-1,-1,28,30,32,34,36,38,-1,40,42,-1,-1,-1,-1,44,46,-1,-1,48,-1,50,52,54,-1,-1,-1,-1,-1,-1,-1,-1,-1,-1,-1,-1,-1,-1,-1,-1,-1,-1],"split_conditions":[9.9E1,3.048786E0,9.130433E3,7.0381866E0,9.1676315E1,2.4848E2,2.7921624E-2,2.0746396E2,6E-4,9.96E1,2.7120544E3,1.4848674E2,2.0000049E4,-5.961919E-2,-3.2088727E-1,3.0762114E1,4.89E4,4.6658646E1,2.4929416E2,7.56E1,1.2343313E1,-3.5273373E-1,2.1628444E-3,3.2000303E0,-2.1372837E-1,-3.3408713E-1,-6.0188103E-2,-2.8336814E-1,7.14E1,6.0724507E3,-3.4903312E-1,-3.0627912E-1,2.6750497E2,-4.2205927E-1,9.907536E1,1.9263819E-8,2.4135186E4,-2.449297E-2,-3.011959E-1,-1.7566273E-1,1.8135934E-1,-1.4222633E-2,2.7475098E-1,2.5215197E-1,-2.0809475E-1,2.2241828E-1,-1.4137006E-1,-3.2116908E-1,8.85475E-2,1.278812E-1,-3.2883215E-1,-2.5382856E-1,-8.9388965E-3,2.3399387E-1,-2.2120863E-1],"split_indices":[3,3,8,56,23,52,42,17,54,50,22,37,22,0,0,25,6,36,10,50,3,0,28,1,0,0,0,0,36,8,0,0,30,0,50,27,26,0,0,0,0,0,0,0,0,0,0,0,0,0,0,0,0,0,0],"split_type":[0,0,0,0,0,0,0,0,0,0,0,0,0,0,0,0,0,0,0,0,0,0,0,0,0,0,0,0,0,0,0,0,0,0,0,0,0,0,0,0,0,0,0,0,0,0,0,0,0,0,0,0,0,0,0],"sum_hessian":[3.4136182E2,3.0326514E2,3.8096684E1,2.116495E2,9.161562E1,1.642226E1,2.1674425E1,5.075568E1,1.6089383E2,8.248742E1,9.128207E0,8.791293E0,7.630967E0,1.7991366E0,1.9875288E1,1.3848477E1,3.6907204E1,1.3958917E2,2.1304665E1,7.8108345E1,4.379075E0,6.496819E0,2.6313887E0,6.2516713E0,2.5396218E0,5.9148636E0,1.7161032E0,4.0291467E0,9.81933E0,4.4396534E0,3.2467552E1,6.938689E0,1.3265048E2,8.860032E0,1.2444633E1,4.270319E0,7.383802E1,1.1787388E0,3.200336E0,1.0279324E0,1.6034563E0,1.0253851E0,5.226286E0,8.211894E0,1.6074362E0,2.7606516E0,1.6790017E0,5.481312E0,1.2716917E2,6.710581E0,5.734052E0,3.2289102E0,1.0414088E0,7.1585976E1,2.2520466E0],"tree_param":{"num_deleted":"0","num_feature":"58","num_nodes":"55","size_leaf_vector":"1"}},{"base_weights":[-6.724079E-2,-3.641383E-1,1.0446369E-1,-7.5970924E-1,9.759314E-2,1.7804949E-1,-3.0543816E-1,-2.0833537E-1,-9.857855E-1,5.4948217E-1,-5.838341E-1,2.8015718E-1,-6.5005773E-1,-2.7619523E-1,1.4395472E-1,6.1380602E-2,-1.0504708E0,7.05122E-1,-5.528066E-1,-1.1769809E0,2.1106008E-1,3.815292E-1,-7.723589E-1,1.199809E-1,-4.2748895E-1,-2.3661426E-1,4.6893162E-1,1.7108674E-1,-1.659159E-1,-1.1001593E0,-3.792705E-1,-1.9743647E-1,7.929775E-1,-1.6064504E-2,-2.0496328E-1,-3.7243778E-1,-7.412814E-2,7.606101E-1,-7.497189E-1,4.5737168E-1,-8.3259225E-1,-1.18662536E-1,-3.1367227E-1,-3.0461568E-1,3.865085E-1,2.2317044E-1,-2.2153004E-1,-3.3647075E-1,-1.1081898E-1,4.6897482E-2,-2.2584519E-1,2.6297858E-1,-1.386472E-1,2.622305E-1,1.9877017E-2,-2.8776512E-1,-2.4766197E-2,1.6413984E-1,-9.9232905E-2,-3.265052E-1,1.3157052E-1,-1.9945441E-1,1.8207225E-1,2.017171E-1,-2.4309762E-1],"categories":[],"categories_nodes":[],"categories_segments":[],"categories_sizes":[],"default_left":[0,0,0,0,0,0,0,0,0,0,0,0,0,0,0,0,0,0,0,0,0,0,0,0,0,0,0,0,0,0,0,0,0,0,0,0,0,0,0,0,0,0,0,0,0,0,0,0,0,0,0,0,0,0,0,0,0,0,0,0,0,0,0,0,0],"id":12,"left_children":[1,3,5,7,9,11,-1,13,15,17,19,21,23,-1,25,27,29,31,33,35,37,39,41,43,-1,-1,45,-1,-1,47,49,-1,51,-1,-1,-1,-1,53,55,57,59,61,-1,-1,63,-1,-1,-1,-1,-1,-1,-1,-1,-1,-1,-1,-1,-1,-1,-1,-1,-1,-1,-1,-1],"loss_changes":[1.5442881E1,2.033855E1,1.6061115E1,7.25745E0,1.6357512E1,1.5508722E1,0E0,4.819469E0,2.9223785E0,5.8503275E0,1.0267761E1,1.7585987E1,1.2223047E1,0E0,4.4197025E0,1.3783674E0,9.098511E-1,3.9149284E0,2.5629926E-1,4.320202E-1,5.8126235E0,1.4054396E1,2.477808E0,3.7371569E0,0E0,0E0,4.0471888E0,0E0,0E0,1.5712357E-1,9.7175366E-1,0E0,3.2459927E0,0E0,0E0,0E0,0E0,4.7893214E-1,4.9614978E-1,1.0114189E1,3.430986E0,2.552266E0,0E0,0E0,3.8554876E0,0E0,0E0,0E0,0E0,0E0,0E0,0E0,0E0,0E0,0E0,0E0,0E0,0E0,0E0,0E0,0E0,0E0,0E0,0E0,0E0],"parents":[2147483647,0,0,1,1,2,2,3,3,4,4,5,5,7,7,8,8,9,9,10,10,11,11,12,12,14,14,15,15,16,16,17,17,18,18,19,19,20,20,21,21,22,22,23,23,26,26,29,29,30,30,32,32,37,37,38,38,39,39,40,40,41,41,44,44],"right_children":[2,4,6,8,10,12,-1,14,16,18,20,22,24,-1,26,28,30,32,34,36,38,40,42,44,-1,-1,46,-1,-1,48,50,-1,52,-1,-1,-1,-1,54,56,58,60,62,-1,-1,64,-1,-1,-1,-1,-1,-1,-1,-1,-1,-1,-1,-1,-1,-1,-1,-1,-1,-1,-1,-1],"split_conditions":[1.4214032E1,9.820247E1,4.4E1,7.8592575E1,9.94E1,8.62E4,-3.0543816E-1,6.809328E1,3.85E4,3.4074564E2,5.0700676E-1,2.84E4,5.525644E3,-2.7619523E-1,2.1628444E-3,4.4873833E1,9.790538E1,2.6893704E2,3.6055624E2,9.6E1,1.197141E3,1.2322379E1,2.4134637E4,2.63184E3,-4.2748895E-1,-2.3661426E-1,9.174439E1,1.7108674E-1,-1.659159E-1,3.0425328E4,2.8377115E2,-1.9743647E-1,2.885028E2,-1.6064504E-2,-2.0496328E-1,-3.7243778E-1,-7.412814E-2,3.0434332E2,2.360637E3,9.919576E1,6.742196E2,2.6053894E2,-3.1367227E-1,-3.0461568E-1,3.44816E3,2.2317044E-1,-2.2153004E-1,-3.3647075E-1,-1.1081898E-1,4.6897482E-2,-2.2584519E-1,2.6297858E-1,-1.386472E-1,2.622305E-1,1.9877017E-2,-2.8776512E-1,-2.4766197E-2,1.6413984E-1,-9.9232905E-2,-3.265052E-1,1.3157052E-1,-1.9945441E-1,1.8207225E-1,2.017171E-1,-2.4309762E-1],"split_indices":[57,50,42,51,50,7,0,50,7,17,28,19,8,0,28,3,50,12,17,41,39,9,26,38,0,0,35,0,0,19,34,0,33,0,0,0,0,17,22,50,37,29,0,0,38,0,0,0,0,0,0,0,0,0,0,0,0,0,0,0,0,0,0,0,0],"split_type":[0,0,0,0,0,0,0,0,0,0,0,0,0,0,0,0,0,0,0,0,0,0,0,0,0,0,0,0,0,0,0,0,0,0,0,0,0,0,0,0,0,0,0,0,0,0,0,0,0,0,0,0,0,0,0,0,0,0,0,0,0,0,0,0,0],"sum_hessian":[3.011823E2,1.0994814E2,1.9123418E2,5.8869003E1,5.107914E1,1.8025957E2,1.0974615E1,1.7677395E1,4.119161E1,3.0828695E1,2.0250443E1,1.6106192E2,1.9197647E1,5.315782E0,1.2361613E1,2.3994222E0,3.8792187E1,2.7330082E1,3.498613E0,1.1321621E1,8.9288225E0,1.4749371E2,1.3568202E1,1.0052976E1,9.144671E0,2.8255184E0,9.536095E0,1.3517076E0,1.0477146E0,3.552333E1,3.2688546E0,1.2616875E0,2.6068396E1,1.0167142E0,2.4818988E0,1.0274147E1,1.0474737E0,5.8125043E0,3.1163182E0,1.3940858E2,8.085141E0,4.4221234E0,9.146079E0,1.3770924E0,8.675883E0,8.079828E0,1.4562666E0,3.3992622E1,1.5307096E0,1.5820318E0,1.6868227E0,2.4722933E1,1.3454617E0,4.7734213E0,1.039083E0,2.0384638E0,1.0778543E0,1.254294E2,1.3979183E1,6.8506074E0,1.2345335E0,2.5706844E0,1.8514389E0,7.3567944E0,1.3190888E0],"tree_param":{"num_deleted":"0","num_feature":"58","num_nodes":"65","size_leaf_vector":"1"}},{"base_weights":[-7.064431E-2,-3.4588456E-1,1.1005513E-1,-1.4144729E-1,-9.0083736E-1,2.952273E-1,-2.5064877E-1,8.129816E-2,-9.875497E-1,-1.007972E0,-4.6771374E-2,-1.7178285E-1,4.8562816E-1,1.1620536E-1,-9.164363E-1,-5.016637E-1,4.1489175E-1,-3.4598708E-1,-3.885002E-1,-2.398837E-1,-1.1285809E0,1.9471075E-1,-2.0790096E-1,-3.716215E-1,3.318842E-2,-2.6676148E-1,6.247328E-1,2.934747E-1,-1.0625515E0,-1.0939547E0,1.4809775E-1,-7.956286E-1,1.9301477E-1,-2.590598E-1,5.435223E-1,1.2317815E-1,-6.987168E-1,1.7903078E-1,-2.4687576E-1,-3.5003585E-1,-1.32286E-1,-4.8129436E-1,3.2952228E-1,-3.3785355E-1,3.0265862E-1,6.693797E-1,-2.3002498E-1,5.339583E-1,-4.8883465E-1,-2.6175251E-2,-3.8672605E-1,-7.571592E-2,-1.1828618E0,1.7795992E-1,-1.2374472E-1,9.503468E-2,-2.9158917E-1,-1.6670094E-1,2.3730466E-1,2.0450631E-1,-1.634368E-1,-2.4339904E-1,-5.458183E-2,-3.0315772E-1,8.664755E-2,1.7091657E-1,-2.5729886E-1,1.9828336E-1,-2.0638178E-1,6.355836E-2,2.4560298E-1,-2.2365397E-1,1.9795434E-1,-3.0593774E-1,1.4313139E-1,-3.7766019E-1,-2.625104E-2],"categories":[],"categories_nodes":[],"categories_segments":[],"categories_sizes":[],"default_left":[0,0,0,0,0,0,0,0,0,0,0,0,0,0,0,0,0,0,0,0,0,0,0,0,0,0,0,0,0,0,0,0,0,0,0,0,0,0,0,0,0,0,0,0,0,0,0,0,0,0,0,0,0,0,0,0,0,0,0,0,0,0,0,0,0,0,0,0,0,0,0,0,0,0,0,0,0],"id":13,"left_children":[1,3,5,7,9,11,13,15,17,19,21,23,25,27,29,31,33,-1,35,37,39,-1,-1,-1,41,43,45,47,49,51,53,55,57,-1,59,-1,61,-1,-1,-1,-1,63,65,-1,67,69,-1,71,73,-1,-1,-1,75,-1,-1,-1,-1,-1,-1,-1,-1,-1,-1,-1,-1,-1,-1,-1,-1,-1,-1,-1,-1,-1,-1,-1,-1],"loss_changes":[1.3256606E1,1.1850304E1,1.0840991E1,1.4844413E1,2.536419E0,9.595776E0,1.3594658E1,1.24476385E1,1.1804152E0,2.0489235E0,2.3364282E0,6.9785147E0,8.1476555E0,7.9371843E0,3.890688E0,4.923835E0,7.1420918E0,0E0,1.5418302E0,2.7682312E0,4.69532E-2,0E0,0E0,0E0,4.3639746E0,6.506593E0,4.530052E0,6.376342E0,9.89346E-1,9.7569275E-1,1.1680913E0,3.5658703E0,3.9095585E0,0E0,6.0073853E0,0E0,8.615351E-2,0E0,0E0,0E0,0E0,4.566307E0,5.648947E0,0E0,3.4240863E0,4.142151E0,0E0,4.5735745E0,4.6740904E0,0E0,0E0,0E0,1.1496162E0,0E0,0E0,0E0,0E0,0E0,0E0,0E0,0E0,0E0,0E0,0E0,0E0,0E0,0E0,0E0,0E0,0E0,0E0,0E0,0E0,0E0,0E0,0E0,0E0],"parents":[2147483647,0,0,1,1,2,2,3,3,4,4,5,5,6,6,7,7,8,8,9,9,10,10,11,11,12,12,13,13,14,14,15,15,16,16,18,18,19,19,20,20,24,24,25,25,26,26,27,27,28,28,29,29,30,30,31,31,32,32,34,34,36,36,41,41,42,42,44,44,45,45,47,47,48,48,52,52],"right_children":[2,4,6,8,10,12,14,16,18,20,22,24,26,28,30,32,34,-1,36,38,40,-1,-1,-1,42,44,46,48,50,52,54,56,58,-1,60,-1,62,-1,-1,-1,-1,64,66,-1,68,70,-1,72,74,-1,-1,-1,76,-1,-1,-1,-1,-1,-1,-1,-1,-1,-1,-1,-1,-1,-1,-1,-1,-1,-1,-1,-1,-1,-1,-1,-1],"split_conditions":[6.068437E0,1.0545876E1,1E2,1.9999982E4,4.3998555E3,1.822161E1,2.8056186E2,1.713447E-2,1.6475084E1,5.525644E3,2.8634317E2,2.231112E4,1.3958892E1,2.6143658E2,2.7685995E2,8.610066E4,1.902534E3,-3.4598708E-1,2.702E2,4.895142E4,2.7844675E2,1.9471075E-1,-2.0790096E-1,-3.716215E-1,8.500052E4,1.5196869E1,1.0881726E4,6.1180413E-2,1.0624746E4,7.2E1,2.611068E2,1.40582E0,9.808473E0,-2.590598E-1,2.8345157E2,1.2317815E-1,2.84764E2,1.7903078E-1,-2.4687576E-1,-3.5003585E-1,-1.32286E-1,2.816E2,2.2681236E1,-3.3785355E-1,2.603E2,2.1628444E-3,-2.3002498E-1,6.15E1,3.2416E3,-2.6175251E-2,-3.8672605E-1,-7.571592E-2,2.0376366E-4,1.7795992E-1,-1.2374472E-1,9.503468E-2,-2.9158917E-1,-1.6670094E-1,2.3730466E-1,2.0450631E-1,-1.634368E-1,-2.4339904E-1,-5.458183E-2,-3.0315772E-1,8.664755E-2,1.7091657E-1,-2.5729886E-1,1.9828336E-1,-2.0638178E-1,6.355836E-2,2.4560298E-1,-2.2365397E-1,1.9795434E-1,-3.0593774E-1,1.4313139E-1,-3.7766019E-1,-2.625104E-2],"split_indices":[24,23,25,39,18,25,17,23,3,8,13,26,18,10,11,7,38,0,47,6,11,0,0,0,7,57,8,2,39,51,10,56,9,0,49,0,31,0,0,0,0,46,57,0,46,28,0,16,53,0,0,0,20,0,0,0,0,0,0,0,0,0,0,0,0,0,0,0,0,0,0,0,0,0,0,0,0],"split_type":[0,0,0,0,0,0,0,0,0,0,0,0,0,0,0,0,0,0,0,0,0,0,0,0,0,0,0,0,0,0,0,0,0,0,0,0,0,0,0,0,0,0,0,0,0,0,0,0,0,0,0,0,0,0,0,0,0,0,0,0,0,0,0,0,0,0,0,0,0,0,0,0,0,0,0,0,0],"sum_hessian":[2.6477536E2,1.04574295E2,1.6020105E2,7.733864E1,2.7235655E1,1.0597758E2,5.422348E1,6.193699E1,1.5401655E1,2.4039873E1,3.195781E0,3.0721786E1,7.525579E1,3.5492367E1,1.8731112E1,2.2359488E1,3.95775E1,1.1339207E1,4.062448E0,3.6681967E0,2.0371675E1,1.5367745E0,1.6590065E0,4.138066E0,2.658372E1,1.1599371E1,6.365642E1,3.1505404E1,3.9869637E0,1.6030308E1,2.700802E0,1.560897E1,6.7505183E0,3.0958087E0,3.648169E1,1.0455697E0,3.0168784E0,1.4967756E0,2.171421E0,1.8639236E1,1.7324406E0,9.48759E0,1.709613E1,4.232922E0,7.3664484E0,6.218026E1,1.4761612E0,2.4340532E1,7.1648726E0,1.012596E0,2.9743679E0,1.8984942E0,1.4131814E1,1.4730265E0,1.2277757E0,2.026748E0,1.3582222E1,3.0290267E0,3.7214916E0,3.2703484E1,3.7782066E0,2.009089E0,1.0077894E0,5.4382324E0,4.0493574E0,1.4651785E1,2.4443452E0,5.654187E0,1.7122613E0,1.5893596E1,4.6286663E1,1.739477E0,2.2601055E1,4.5874753E0,2.577397E0,1.3075265E1,1.0565493E0],"tree_param":{"num_deleted":"0","num_feature":"58","num_nodes":"77","size_leaf_vector":"1"}},{"base_weights":[-7.607042E-2,-3.157247E-1,-2.9857682E-2,-2.268286E-1,1.8819219E-1,4.8643578E-2,-9.109157E-1,3.7373132E-1,-4.469808E-1,-6.7751116E-1,1.9684066E-1,-1.0823278E0,2.7795502E-3,5.445182E-1,-2.2935179E-1,6.2239975E-1,-7.5117666E-1,6.086309E-2,-3.3421537E-1,-2.6619816E-1,3.89858E-1,-3.4729382E-1,-4.008505E-1,4.5924643E-1,-2.2318454E-1,6.0488194E-1,-2.4523744E-1,3.631014E-1,-8.8403034E-1,-6.166542E-2,2.5225857E-1,3.2366765E-1,-1.1163903E0,1.2182337E-1,-1.5712047E-1,-2.839657E-1,4.2750783E-2,1.576201E-1,-1.4704381E-1,-2.406901E-1,1.17020346E-1,-3.326403E-2,1.9978109E-1,-4.64559E-2,2.0814188E-1,-1.5664043E-1,2.0118192E-1,-3.133729E-1,6.4350635E-2,-1.3706847E-1,1.9294289E-1,-3.5716936E-1,-2.195714E-2],"categories":[],"categories_nodes":[],"categories_segments":[],"categories_sizes":[],"default_left":[0,0,0,0,0,0,0,0,0,0,0,0,0,0,0,0,0,0,0,0,0,0,0,0,0,0,0,0,0,0,0,0,0,0,0,0,0,0,0,0,0,0,0,0,0,0,0,0,0,0,0,0,0],"id":14,"left_children":[1,-1,3,5,7,9,11,13,15,17,19,21,23,25,27,29,31,33,-1,35,37,-1,39,41,-1,43,-1,45,47,-1,-1,49,51,-1,-1,-1,-1,-1,-1,-1,-1,-1,-1,-1,-1,-1,-1,-1,-1,-1,-1,-1,-1],"loss_changes":[1.0335972E1,0E0,9.509647E0,2.1953426E1,1.2560021E1,9.155094E0,5.2383385E0,8.56362E0,8.349202E0,4.7204733E0,6.395719E0,9.80793E-1,2.4815106E0,5.7681255E0,7.607076E0,1.2422984E0,7.943866E0,1.4863807E0,0E0,6.059381E0,6.232535E0,0E0,1.6881564E0,6.058257E-1,0E0,4.295944E0,0E0,3.2274566E0,1.8492723E0,0E0,0E0,1.7087829E0,1.0458488E0,0E0,0E0,0E0,0E0,0E0,0E0,0E0,0E0,0E0,0E0,0E0,0E0,0E0,0E0,0E0,0E0,0E0,0E0,0E0,0E0],"parents":[2147483647,0,0,2,2,3,3,4,4,5,5,6,6,7,7,8,8,9,9,10,10,11,11,12,12,13,13,14,14,15,15,16,16,17,17,19,19,20,20,22,22,23,23,25,25,27,27,28,28,31,31,32,32],"right_children":[2,-1,4,6,8,10,12,14,16,18,20,22,24,26,28,30,32,34,-1,36,38,-1,40,42,-1,44,-1,46,48,-1,-1,50,52,-1,-1,-1,-1,-1,-1,-1,-1,-1,-1,-1,-1,-1,-1,-1,-1,-1,-1,-1,-1],"split_conditions":[6.79E1,-3.157247E-1,2.1628444E-3,2.8585223E2,8.794635E1,8.5E4,1.0000944E1,1.3125E0,2.6303494E2,2.4556487E2,4.4552044E-6,8.118504E1,2.4616199E2,2.926157E2,8.97E1,2.00001E4,1.247948E3,2.0744913E2,-3.3421537E-1,4.3242416E-1,3.9375E0,-3.4729382E-1,9.045927E0,2.730146E2,-2.2318454E-1,1.1739446E0,-2.4523744E-1,4.510759E1,8.39E4,-6.166542E-2,2.5225857E-1,2.58352E3,2.8787402E2,1.2182337E-1,-1.5712047E-1,-2.839657E-1,4.2750783E-2,1.576201E-1,-1.4704381E-1,-2.406901E-1,1.17020346E-1,-3.326403E-2,1.9978109E-1,-4.64559E-2,2.0814188E-1,-1.5664043E-1,2.0118192E-1,-3.133729E-1,6.4350635E-2,-1.3706847E-1,1.9294289E-1,-3.5716936E-1,-2.195714E-2],"split_indices":[50,0,28,34,36,7,56,55,47,52,54,42,37,33,35,39,39,37,0,23,55,0,56,30,0,43,0,40,6,0,0,38,32,0,0,0,0,0,0,0,0,0,0,0,0,0,0,0,0,0,0,0,0],"split_type":[0,0,0,0,0,0,0,0,0,0,0,0,0,0,0,0,0,0,0,0,0,0,0,0,0,0,0,0,0,0,0,0,0,0,0,0,0,0,0,0,0,0,0,0,0,0,0,0,0,0,0,0,0],"sum_hessian":[2.2877592E2,9.355127E0,2.1942079E2,1.15261444E2,1.0415935E2,8.283418E1,3.242726E1,8.0930504E1,2.3228844E1,1.3434489E1,6.93997E1,2.7149385E1,5.277874E0,6.3145473E1,1.7785034E1,4.91266E0,1.8316183E1,5.311341E0,8.123149E0,2.0306438E1,4.9093254E1,2.3818224E1,3.331163E0,3.5144913E0,1.7633828E0,6.0997883E1,2.1475914E0,9.570006E0,8.215029E0,1.0379655E0,3.8746948E0,4.6740246E0,1.36421585E1,3.5313768E0,1.7799643E0,7.1267347E0,1.3179704E1,4.2890083E1,6.2031736E0,2.200072E0,1.1310908E0,1.0584507E0,2.4560409E0,6.3137975E0,5.4684082E1,2.287332E0,7.2826743E0,7.2103786E0,1.0046501E0,1.2325176E0,3.441507E0,1.26046715E1,1.0374868E0],"tree_param":{"num_deleted":"0","num_feature":"58","num_nodes":"53","size_leaf_vector":"1"}},{"base_weights":[-7.574906E-2,4.385308E-2,-4.394998E-1,1.4974324E-1,-7.355267E-1,-6.816002E-1,5.423768E-1,2.398595E-1,-5.842737E-1,-1.010458E0,2.7731898E-1,-1.1955066E0,-3.70616E-1,8.165363E-1,-2.109655E-1,-2.8091648E-1,3.0465937E-1,-8.757647E-1,6.0047317E-2,-8.958544E-2,-3.2149196E-1,-1.2548679E-1,1.7353275E-1,-1.293787E0,-3.9431104E-1,-5.9565693E-1,2.8247514E-1,2.6334742E-1,4.888564E-2,-1.3716567E-1,4.5025712E-1,1.18975475E-1,-3.2281846E-1,-1.98359E-1,1.8201102E-1,-4.068689E-1,-8.410414E-2,7.612483E-3,-1.8317921E-1,3.3094752E-1,-8.266252E-1,2.418317E-1,-2.0450936E-1,1.5514825E-1,-2.9714325E-1,1.9233109E-1,1.47767905E-2,-1.5832166E-1,2.1160983E-1,-1.3325077E-1,-3.2692707E-1],"categories":[],"categories_nodes":[],"categories_segments":[],"categories_sizes":[],"default_left":[0,0,0,0,0,0,0,0,0,0,0,0,0,0,0,0,0,0,0,0,0,0,0,0,0,0,0,0,0,0,0,0,0,0,0,0,0,0,0,0,0,0,0,0,0,0,0,0,0,0,0],"id":15,"left_children":[1,3,5,7,9,11,13,15,17,19,21,23,25,27,-1,-1,29,31,33,-1,-1,-1,-1,35,37,39,41,-1,-1,43,45,-1,-1,-1,-1,-1,-1,-1,-1,47,49,-1,-1,-1,-1,-1,-1,-1,-1,-1,-1],"loss_changes":[8.785761E0,1.2700074E1,1.2243749E1,9.078954E0,5.408517E0,6.031769E0,4.1384053E0,9.513173E0,2.8825097E0,3.2019997E-1,1.2298795E0,6.571617E-1,4.090888E0,2.18153E-1,0E0,0E0,7.491803E0,3.086979E0,2.6205854E0,0E0,0E0,0E0,0E0,4.276657E-1,2.9309133E-1,4.590593E0,4.345201E0,0E0,0E0,1.6924469E1,6.634674E0,0E0,0E0,0E0,0E0,0E0,0E0,0E0,0E0,1.8958368E0,1.1696777E0,0E0,0E0,0E0,0E0,0E0,0E0,0E0,0E0,0E0,0E0],"parents":[2147483647,0,0,1,1,2,2,3,3,4,4,5,5,6,6,7,7,8,8,9,9,10,10,11,11,12,12,13,13,16,16,17,17,18,18,23,23,24,24,25,25,26,26,29,29,30,30,39,39,40,40],"right_children":[2,4,6,8,10,12,14,16,18,20,22,24,26,28,-1,-1,30,32,34,-1,-1,-1,-1,36,38,40,42,-1,-1,44,46,-1,-1,-1,-1,-1,-1,-1,-1,48,50,-1,-1,-1,-1,-1,-1,-1,-1,-1,-1],"split_conditions":[9.34E1,2.9026553E2,2.720024E1,1.2E1,5.0700676E-1,1.0041943E0,9.511238E1,7E0,2.8364954E2,3.9335358E1,2.8683456E2,2.6218265E2,2.885961E2,4.461357E0,-2.109655E-1,-2.8091648E-1,5.0346894E0,2.5017491E2,4.4848E2,-8.958544E-2,-3.2149196E-1,-1.2548679E-1,1.7353275E-1,2.6449246E2,2.948026E2,2.57E2,3.42416E3,2.6334742E-1,4.888564E-2,5.69E1,2.2E1,1.18975475E-1,-3.2281846E-1,-1.98359E-1,1.8201102E-1,-4.068689E-1,-8.410414E-2,7.612483E-3,-1.8317921E-1,2.8287534E2,9.702412E-4,2.418317E-1,-2.0450936E-1,1.5514825E-1,-2.9714325E-1,1.9233109E-1,1.47767905E-2,-1.5832166E-1,2.1160983E-1,-1.3325077E-1,-3.2692707E-1],"split_indices":[35,33,57,56,28,1,51,40,32,37,31,29,33,9,0,0,56,11,52,0,0,0,0,44,14,46,38,0,0,36,57,0,0,0,0,0,0,0,0,33,21,0,0,0,0,0,0,0,0,0,0],"split_type":[0,0,0,0,0,0,0,0,0,0,0,0,0,0,0,0,0,0,0,0,0,0,0,0,0,0,0,0,0,0,0,0,0,0,0,0,0,0,0,0,0,0,0,0,0,0,0,0,0,0,0],"sum_hessian":[2.005036E2,1.5155228E2,4.895132E1,1.3413582E2,1.7416449E1,3.9514168E1,9.437154E0,1.2006812E2,1.4067704E1,1.3700015E1,3.7164342E0,1.3824573E1,2.5689596E1,8.017038E0,1.4201154E0,5.5669165E0,1.14501205E2,9.438512E0,4.629192E0,1.5497527E0,1.2150262E1,1.0052253E0,2.7112088E0,1.17664E1,2.058172E0,1.9171469E1,6.5181274E0,7.0160327E0,1.001006E0,2.8394457E1,8.610675E1,1.1504561E0,8.288055E0,1.9055408E0,2.723651E0,1.0764883E1,1.0015174E0,1.0001471E0,1.0580249E0,3.7388775E0,1.5432591E1,4.3303227E0,2.1878045E0,1.6294012E1,1.2100445E1,5.7935184E1,2.8171564E1,1.0109316E0,2.727946E0,7.3856792E0,8.046912E0],"tree_param":{"num_deleted":"0","num_feature":"58","num_nodes":"51","size_leaf_vector":"1"}},{"base_weights":[-7.488177E-2,6.8799205E-2,-3.314037E-1,-8.9003384E-1,1.3718952E-1,-2.1016376E-1,-1.1968428E0,-2.9001936E-1,-8.360613E-2,2.017676E-1,-7.8471506E-1,-6.0950404E-1,1.1498046E-1,-3.0690586E-2,-4.03892E-1,3.0899698E-1,-4.1191816E-1,1.0263972E-2,-2.8185862E-1,-7.0642966E-1,3.3385974E-1,3.5661924E-1,-7.3263466E-1,-6.4827824E-1,3.739659E-1,4.9756154E-2,-8.267307E-1,-3.1814322E-1,-9.5960087E-1,-6.639717E-3,1.5609798E-1,-3.764484E-1,5.8115995E-1,3.3096932E-2,-2.6373982E-1,-2.643891E-1,7.444459E-2,-2.4985986E-2,1.497251E-1,-2.0571809E-1,1.17684074E-1,-7.097891E-3,-2.813638E-1,-1.4035751E-3,-2.5204417E-1,-3.1233266E-1,1.1730846E-2,1.2232489E-1,-2.5401023E-1,-3.420192E-2,2.3671879E-1],"categories":[],"categories_nodes":[],"categories_segments":[],"categories_sizes":[],"default_left":[0,0,0,0,0,0,0,0,0,0,0,0,0,0,0,0,0,0,0,0,0,0,0,0,0,0,0,0,0,0,0,0,0,0,0,0,0,0,0,0,0,0,0,0,0,0,0,0,0,0,0],"id":16,"left_children":[1,3,5,7,9,11,13,-1,-1,15,17,19,21,-1,-1,23,25,-1,-1,27,29,31,33,35,37,39,41,43,45,-1,-1,47,49,-1,-1,-1,-1,-1,-1,-1,-1,-1,-1,-1,-1,-1,-1,-1,-1,-1,-1],"loss_changes":[6.598838E0,7.6757345E0,6.4876266E0,9.644413E-2,6.6112003E0,7.5423965E0,1.1185312E0,0E0,0E0,6.845213E0,9.5764065E-1,2.611929E0,6.9306197E0,0E0,0E0,5.6827755E0,3.0312097E0,0E0,0E0,2.0427732E0,2.1731323E-1,4.5003595E0,1.0294781E0,1.456398E0,4.764263E0,2.368124E0,7.1695375E-1,1.7834493E0,1.1773033E0,0E0,0E0,2.81825E0,3.0246391E0,0E0,0E0,0E0,0E0,0E0,0E0,0E0,0E0,0E0,0E0,0E0,0E0,0E0,0E0,0E0,0E0,0E0,0E0],"parents":[2147483647,0,0,1,1,2,2,3,3,4,4,5,5,6,6,9,9,10,10,11,11,12,12,15,15,16,16,19,19,20,20,21,21,22,22,23,23,24,24,25,25,26,26,27,27,28,28,31,31,32,32],"right_children":[2,4,6,8,10,12,14,-1,-1,16,18,20,22,-1,-1,24,26,-1,-1,28,30,32,34,36,38,40,42,44,46,-1,-1,48,50,-1,-1,-1,-1,-1,-1,-1,-1,-1,-1,-1,-1,-1,-1,-1,-1,-1,-1],"split_conditions":[2.3301027E2,2.4396228E2,9.543334E1,2.4280103E2,9.7968125E3,1.9263819E-8,1.7255774E3,-2.9001936E-1,-8.360613E-2,3.7981137E2,2.7127606E2,-9.675535E2,1E2,-3.0690586E-2,-4.03892E-1,8E0,5.840876E3,1.0263972E-2,-2.8185862E-1,3.122699E2,9.1676315E1,4.5021774E2,2.4280103E2,8.9350283E-1,1.713447E-2,1.4214032E1,1.3410913E3,2.8260968E2,2.4135271E4,-6.639717E-3,1.5609798E-1,7.985655E3,6.6E0,3.3096932E-2,-2.6373982E-1,-2.643891E-1,7.444459E-2,-2.4985986E-2,1.497251E-1,-2.0571809E-1,1.17684074E-1,-7.097891E-3,-2.813638E-1,-1.4035751E-3,-2.5204417E-1,-3.1233266E-1,1.1730846E-2,1.2232489E-1,-2.5401023E-1,-3.420192E-2,2.3671879E-1],"split_indices":[37,10,35,10,8,27,39,0,0,17,47,0,23,0,0,40,22,0,0,37,23,43,10,28,23,57,5,31,26,0,0,39,24,0,0,0,0,0,0,0,0,0,0,0,0,0,0,0,0,0,0],"split_type":[0,0,0,0,0,0,0,0,0,0,0,0,0,0,0,0,0,0,0,0,0,0,0,0,0,0,0,0,0,0,0,0,0,0,0,0,0,0,0,0,0,0,0,0,0,0,0,0,0,0,0],"sum_hessian":[1.7741878E2,1.141909E2,6.3227875E1,6.8027163E0,1.0738818E2,5.6548763E1,6.679114E0,5.527893E0,1.2748235E0,1.0108824E2,6.299943E0,2.4986238E1,3.1562523E1,1.0048618E0,5.674252E0,8.647495E1,1.4613287E1,1.1254702E0,5.174473E0,2.2885984E1,2.1002545E0,2.5011494E1,6.551029E0,4.925316E0,8.154964E1,7.3324904E0,7.2807965E0,9.923315E0,1.2962668E1,1.0248927E0,1.075362E0,5.706081E0,1.9305414E1,1.0065012E0,5.544528E0,3.9225576E0,1.0027585E0,1.7592136E1,6.39575E1,2.0114443E0,5.321046E0,1.0326371E0,6.2481594E0,6.830529E0,3.092786E0,1.1945307E1,1.0173619E0,2.1888475E0,3.5172334E0,4.5484276E0,1.4756986E1],"tree_param":{"num_deleted":"0","num_feature":"58","num_nodes":"51","size_leaf_vector":"1"}},{"base_weights":[-7.614654E-2,4.9934615E-3,-5.258089E-1,7.6652676E-2,-6.057582E-1,-9.248066E-1,2.705062E-1,-2.7459145E-1,1.2652805E-1,5.980142E-2,-3.075772E-1,1.5323818E-1,-1.066583E0,7.385007E-1,-2.2615683E-1,-2.640575E-1,1.7445292E-1,-2.2232012E-1,5.696698E-1,-1.1989409E0,-4.4044906E-1,2.4469732E-1,4.6249494E-2,2.8655776E-1,-2.6744527E-1,3.3068452E-2,2.0845841E-1,-3.8448412E-2,-3.8630557E-1,-2.3110546E-1,8.070952E-2,-6.597291E-2,1.273575E-1,1.0035134E-1,-2.4755885E-1],"categories":[],"categories_nodes":[],"categories_segments":[],"categories_sizes":[],"default_left":[0,0,0,0,0,0,0,0,0,0,0,0,0,0,0,0,0,0,0,0,0,0,0,0,0,0,0,0,0,0,0,0,0,0,0],"id":17,"left_children":[1,3,5,7,9,11,13,-1,15,17,-1,-1,19,21,-1,-1,23,-1,25,27,29,-1,-1,31,33,-1,-1,-1,-1,-1,-1,-1,-1,-1,-1],"loss_changes":[5.8687067E0,6.0507574E0,8.061953E0,6.234437E0,4.114947E0,3.9246368E0,4.8620257E0,0E0,5.877125E0,3.1000438E0,0E0,0E0,7.512493E-1,1.7495418E-1,0E0,0E0,5.727776E0,0E0,1.8640101E-1,9.9072075E-1,1.2077286E0,0E0,0E0,6.4851837E0,8.199699E0,0E0,0E0,0E0,0E0,0E0,0E0,0E0,0E0,0E0,0E0],"parents":[2147483647,0,0,1,1,2,2,3,3,4,4,5,5,6,6,8,8,9,9,12,12,13,13,16,16,18,18,19,19,20,20,23,23,24,24],"right_children":[2,4,6,8,10,12,14,-1,16,18,-1,-1,20,22,-1,-1,24,-1,26,28,30,-1,-1,32,34,-1,-1,-1,-1,-1,-1,-1,-1,-1,-1],"split_conditions":[9.53E1,2.9052972E2,2.775783E2,2.6562296E2,8.5E1,1.7351397E0,2.8565286E2,-2.7459145E-1,7E0,8.1914536E1,-3.075772E-1,1.5323818E-1,1.7463837E0,9.952031E0,-2.2615683E-1,-2.640575E-1,1E2,-2.2232012E-1,2.6000002E1,2.574085E2,2.594507E2,2.4469732E-1,4.6249494E-2,6.1959755E-2,7.563813E1,3.3068452E-2,2.0845841E-1,-3.8448412E-2,-3.8630557E-1,-2.3110546E-1,8.070952E-2,-6.597291E-2,1.273575E-1,1.0035134E-1,-2.4755885E-1],"split_indices":[35,33,11,30,51,9,12,0,40,35,0,0,28,3,0,0,25,0,57,46,44,0,0,24,16,0,0,0,0,0,0,0,0,0,0],"split_type":[0,0,0,0,0,0,0,0,0,0,0,0,0,0,0,0,0,0,0,0,0,0,0,0,0,0,0,0,0,0,0,0,0,0,0],"sum_hessian":[1.5977797E2,1.3619157E2,2.3586401E1,1.22672905E2,1.3518662E1,1.5605719E1,7.9806824E0,5.042007E0,1.17630905E2,5.5580072E0,7.960655E0,1.1687163E0,1.4437002E1,5.6695366E0,2.3111455E0,4.5562057E0,1.130747E2,1.9856415E0,3.5723658E0,1.1162535E1,3.2744677E0,4.658541E0,1.0109957E0,9.047395E1,2.2600744E1,1.1676551E0,2.4047108E0,1.0413898E0,1.0121145E1,2.1765802E0,1.0978875E0,1.9242445E1,7.123151E1,1.1062193E1,1.1538551E1],"tree_param":{"num_deleted":"0","num_feature":"58","num_nodes":"35","size_leaf_vector":"1"}},{"base_weights":[-7.204808E-2,-3.2127526E-2,-2.663006E-1,1.2141299E-1,-2.7989995E-1,2.4540077E-1,-4.4152135E-1,-4.3431497E-1,4.6215367E-1,3.1021088E-1,-2.6608038E-1,-8.1718194E-1,3.2992426E-1,-8.439486E-1,-2.0084262E-1,-4.4775197E-1,7.775883E-1,-2.3583326E-1,3.6387148E-1,-8.985558E-1,-1.1776432E-2,5.353288E-1,-9.495465E-2,-1.0636123E0,-2.669517E-1,-8.256637E-1,3.0366702E-3,-4.423E-3,-1.9290838E-1,2.5875345E-1,3.212114E-2,-7.1336895E-2,1.3936529E-1,-2.8442556E-1,-8.819599E-2,-1.7493718E-3,2.115818E-1,-3.5711136E-1,-8.298386E-2,2.2123551E-2,-2.0748977E-1,-1.6339302E-2,-2.9186562E-1,5.3036634E-2,-2.460869E-1],"categories":[],"categories_nodes":[],"categories_segments":[],"categories_sizes":[],"default_left":[0,0,0,0,0,0,0,0,0,0,0,0,0,0,0,0,0,0,0,0,0,0,0,0,0,0,0,0,0,0,0,0,0,0,0,0,0,0,0,0,0,0,0,0,0],"id":18,"left_children":[1,3,-1,5,7,9,11,13,15,17,-1,19,21,23,25,27,29,-1,31,33,-1,35,-1,37,39,41,43,-1,-1,-1,-1,-1,-1,-1,-1,-1,-1,-1,-1,-1,-1,-1,-1,-1,-1],"loss_changes":[4.754228E0,5.4008617E0,0E0,6.236312E0,6.41997E0,5.602472E0,4.965666E0,4.1765957E0,3.1705432E0,4.3689995E0,0E0,6.727896E-1,9.68664E-1,1.767479E0,3.8569922E0,2.582242E-1,3.442583E-1,0E0,4.159811E0,2.3121834E-2,0E0,4.5836174E-1,0E0,8.067293E-1,8.898843E-1,7.92613E-1,3.5511553E0,0E0,0E0,0E0,0E0,0E0,0E0,0E0,0E0,0E0,0E0,0E0,0E0,0E0,0E0,0E0,0E0,0E0,0E0],"parents":[2147483647,0,0,1,1,3,3,4,4,5,5,6,6,7,7,8,8,9,9,11,11,12,12,13,13,14,14,15,15,16,16,18,18,19,19,21,21,23,23,24,24,25,25,26,26],"right_children":[2,4,-1,6,8,10,12,14,16,18,-1,20,22,24,26,28,30,-1,32,34,-1,36,-1,38,40,42,44,-1,-1,-1,-1,-1,-1,-1,-1,-1,-1,-1,-1,-1,-1,-1,-1,-1,-1],"split_conditions":[1.86E0,8.991343E1,-2.663006E-1,2.885028E2,2.720024E1,1.27505865E1,1.9129016E-1,2.0120156E0,2.7534818E2,3.830421E4,-2.6608038E-1,7.5891266E2,2.9135895E2,2.7705386E2,5.08897E0,2.708108E2,3.8311617E0,-2.3583326E-1,2.6E2,5.1330956E1,-1.1776432E-2,2.5841403E2,-9.495465E-2,1.7171723E-4,4.36528E3,4.0882807E0,3.4375E0,-4.423E-3,-1.9290838E-1,2.5875345E-1,3.212114E-2,-7.1336895E-2,1.3936529E-1,-2.8442556E-1,-8.819599E-2,-1.7493718E-3,2.115818E-1,-3.5711136E-1,-8.298386E-2,2.2123551E-2,-2.0748977E-1,-1.6339302E-2,-2.9186562E-1,5.3036634E-2,-2.460869E-1],"split_indices":[21,35,0,33,57,9,28,1,11,6,0,52,33,45,23,12,9,0,45,41,0,29,0,27,53,1,55,0,0,0,0,0,0,0,0,0,0,0,0,0,0,0,0,0,0],"split_type":[0,0,0,0,0,0,0,0,0,0,0,0,0,0,0,0,0,0,0,0,0,0,0,0,0,0,0,0,0,0,0,0,0,0,0,0,0,0,0,0,0,0,0,0,0],"sum_hessian":[1.4589012E2,1.4007361E2,5.8165154E0,8.679695E1,5.3276665E1,7.159257E1,1.5204384E1,4.444314E1,8.833526E0,6.840348E1,3.189084E0,1.0185299E1,5.0190854E0,1.5185317E1,2.9257822E1,2.1659963E0,6.6675296E0,2.5549273E0,6.584856E1,9.080394E0,1.1049052E0,3.9392729E0,1.0798124E0,1.0387442E1,4.797876E0,6.4477825E0,2.281004E1,1.0074834E0,1.1585131E0,5.663849E0,1.0036803E0,9.244071E0,5.660448E1,7.867637E0,1.2127562E0,1.1722165E0,2.7670565E0,8.505027E0,1.8824141E0,3.1206834E0,1.6771923E0,1.2531713E0,5.194611E0,1.9483566E1,3.3264735E0],"tree_param":{"num_deleted":"0","num_feature":"58","num_nodes":"45","size_leaf_vector":"1"}},{"base_weights":[-7.363203E-2,-4.388584E-3,-5.4877007E-1,-1.4166613E-1,3.6101124E-1,-2.4357429E-1,-2.684275E-1,-5.4696614E-1,2.8264107E-2,4.8419815E-1,-2.14078E-1,-6.306843E-1,1.4933589E-1,-8.957237E-1,-1.21452E-1,-7.399813E-2,8.070169E-1,5.6125593E-1,-1.602391E-1,-2.4972084E-1,1.1303475E-2,-1.3991337E-1,4.669118E-1,4.859936E-2,-3.18537E-1,3.446714E-1,-6.6812074E-1,1.482523E-1,-6.303579E-1,2.5984615E-1,6.851633E-2,-1.13038175E-1,6.140022E-1,-2.5610814E-2,2.0371474E-1,1.5714435E-1,-1.20827846E-1,4.065017E-2,-2.5682008E-1,1.0204277E-1,-1.911832E-1,2.002203E-1,-2.54056E-1,2.0139873E-1,-7.66989E-2],"categories":[],"categories_nodes":[],"categories_segments":[],"categories_sizes":[],"default_left":[0,0,0,0,0,0,0,0,0,0,0,0,0,0,0,0,0,0,0,0,0,0,0,0,0,0,0,0,0,0,0,0,0,0,0,0,0,0,0,0,0,0,0,0,0],"id":19,"left_children":[1,3,5,7,9,11,-1,13,15,17,-1,19,21,23,25,27,29,31,-1,-1,-1,-1,33,-1,-1,35,37,39,41,-1,-1,-1,43,-1,-1,-1,-1,-1,-1,-1,-1,-1,-1,-1,-1],"loss_changes":[4.4200397E0,5.9867373E0,1.5866342E0,5.989026E0,4.66062E0,1.6842599E0,0E0,3.7008624E0,5.00216E0,2.6413584E0,0E0,7.671373E-1,1.3903416E0,2.6225662E0,3.4715421E0,6.9900227E0,5.1555157E-2,1.6280727E0,0E0,0E0,0E0,0E0,5.800244E-1,0E0,0E0,1.2186146E0,1.0516059E0,6.346193E0,5.0916977E0,0E0,0E0,0E0,1.5230198E0,0E0,0E0,0E0,0E0,0E0,0E0,0E0,0E0,0E0,0E0,0E0,0E0],"parents":[2147483647,0,0,1,1,2,2,3,3,4,4,5,5,7,7,8,8,9,9,11,11,12,12,13,13,14,14,15,15,16,16,17,17,22,22,25,25,26,26,27,27,28,28,32,32],"right_children":[2,4,6,8,10,12,-1,14,16,18,-1,20,22,24,26,28,30,32,-1,-1,-1,-1,34,-1,-1,36,38,40,42,-1,-1,-1,44,-1,-1,-1,-1,-1,-1,-1,-1,-1,-1,-1,-1],"split_conditions":[9.2E1,3.048786E0,1.6401347E2,8.008806E0,9.423033E1,6.157119E1,-2.684275E-1,1.8900932E4,2.635E2,8.66E4,-2.14078E-1,9.861288E0,1.2632257E4,4.89E4,2.1923328E2,2.3E1,3.3463726E0,7.56E1,-1.602391E-1,-2.4972084E-1,1.1303475E-2,-1.3991337E-1,8.141706E1,4.859936E-2,-3.18537E-1,9.59E1,2.7802978E0,2.32126E4,9E0,2.5984615E-1,6.851633E-2,-1.13038175E-1,9.95E1,-2.5610814E-2,2.0371474E-1,1.5714435E-1,-1.20827846E-1,4.065017E-2,-2.5682008E-1,1.0204277E-1,-1.911832E-1,2.002203E-1,-2.54056E-1,2.0139873E-1,-7.66989E-2],"split_indices":[3,3,37,56,23,37,0,19,44,7,0,9,19,6,17,57,9,50,0,0,0,0,16,0,0,35,9,43,56,0,0,0,50,0,0,0,0,0,0,0,0,0,0,0,0],"split_type":[0,0,0,0,0,0,0,0,0,0,0,0,0,0,0,0,0,0,0,0,0,0,0,0,0,0,0,0,0,0,0,0,0,0,0,0,0,0,0,0,0,0,0,0,0],"sum_hessian":[1.3342012E2,1.1733041E2,1.6089714E1,8.5733406E1,3.1596998E1,9.4541855E0,6.6355286E0,2.4671272E1,6.1062138E1,2.8840317E1,2.7566824E0,4.4574122E0,4.9967737E0,1.2951222E1,1.1720049E1,5.4774395E1,6.2877426E0,2.7228739E1,1.6115763E0,3.2354774E0,1.2219349E0,1.5408432E0,3.4559305E0,1.7607872E0,1.1190435E1,6.525506E0,5.1945424E0,3.9663464E1,1.511093E1,5.2538805E0,1.033862E0,1.1224988E0,2.6106241E1,1.1249071E0,2.3310232E0,5.5052066E0,1.0202996E0,1.0374885E0,4.157054E0,3.233228E1,7.331185E0,1.8626605E0,1.324827E1,2.470574E1,1.4004999E0],"tree_param":{"num_deleted":"0","num_feature":"58","num_nodes":"45","size_leaf_vector":"1"}},{"base_weights":[-6.8775E-2,-3.0630982E-1,6.364178E-2,-3.02838E-1,-1.2603493E-1,1.1935534E-1,-2.516547E-1,1.0927927E-1,-7.0299405E-1,3.5029382E-1,-1.293784E-1,3.1720114E-1,-3.7684458E-1,7.256975E-2,-8.3117425E-1,6.521197E-1,-3.0763707E-1,-4.8282802E-1,6.1454415E-1,-5.007666E-1,5.4968405E-1,3.0532482E-1,-6.9596106E-1,-9.897084E-2,-2.6826498E-1,7.391031E-1,-1.9794224E-1,4.117273E-1,-7.3907447E-1,-9.273165E-1,-2.1723166E-1,8.0661035E-1,-1.3051553E-1,-2.4140985E-1,8.596774E-3,2.2218303E-1,-4.8465822E-2,1.6728178E-1,-2.7823253E-2,-2.0011067E-2,-2.4374071E-1,2.505496E-1,-1.6371943E-1,-5.5121414E-2,1.8094571E-1,-3.1925538E-1,-2.9624095E-2,-8.65009E-2,-3.5932124E-1,8.939872E-2,-1.791951E-1,2.7237493E-1,1.6797232E-2],"categories":[],"categories_nodes":[],"categories_segments":[],"categories_sizes":[],"default_left":[0,0,0,0,0,0,0,0,0,0,0,0,0,0,0,0,0,0,0,0,0,0,0,0,0,0,0,0,0,0,0,0,0,0,0,0,0,0,0,0,0,0,0,0,0,0,0,0,0,0,0,0,0],"id":20,"left_children":[1,3,5,-1,7,9,-1,11,13,15,17,19,21,-1,23,25,27,29,31,33,35,37,39,-1,-1,41,-1,43,45,47,49,51,-1,-1,-1,-1,-1,-1,-1,-1,-1,-1,-1,-1,-1,-1,-1,-1,-1,-1,-1,-1,-1],"loss_changes":[3.8225706E0,5.3804584E0,4.0452228E0,0E0,4.927193E0,4.3405333E0,0E0,2.7719212E0,1.4708753E0,7.953998E0,9.954611E0,3.8737442E0,2.0233526E0,0E0,3.8590431E-3,3.5786E0,4.325978E0,2.804237E0,2.8245344E0,7.811482E-1,2.1853118E0,3.877594E-1,3.836515E-1,0E0,0E0,3.6491756E0,0E0,7.37777E-1,1.6556454E0,1.2472944E0,3.5547132E0,7.645483E-1,0E0,0E0,0E0,0E0,0E0,0E0,0E0,0E0,0E0,0E0,0E0,0E0,0E0,0E0,0E0,0E0,0E0,0E0,0E0,0E0,0E0],"parents":[2147483647,0,0,1,1,2,2,4,4,5,5,7,7,8,8,9,9,10,10,11,11,12,12,14,14,15,15,16,16,17,17,18,18,19,19,20,20,21,21,22,22,25,25,27,27,28,28,29,29,30,30,31,31],"right_children":[2,4,6,-1,8,10,-1,12,14,16,18,20,22,-1,24,26,28,30,32,34,36,38,40,-1,-1,42,-1,44,46,48,50,52,-1,-1,-1,-1,-1,-1,-1,-1,-1,-1,-1,-1,-1,-1,-1,-1,-1,-1,-1,-1,-1],"split_conditions":[1.4214032E1,1.2944E2,4.4E1,-3.02838E-1,3.154395E2,2.3E1,-2.516547E-1,3.3121035E3,3.85E4,2.713E2,2.7766315E2,6.0838394E0,2.41347E4,7.256975E-2,3.7E0,2.8877454E2,1.99998E4,2.5493073E2,2.8436853E2,5.5801373E0,3.8E3,2.8824582E2,8.409995E1,-9.897084E-2,-2.6826498E-1,1.2571767E1,-1.9794224E-1,8.008806E0,2.8234833E2,9.34E1,2.4799069E2,1.9603984E-1,-1.3051553E-1,-2.4140985E-1,8.596774E-3,2.2218303E-1,-4.8465822E-2,1.6728178E-1,-2.7823253E-2,-2.0011067E-2,-2.4374071E-1,2.505496E-1,-1.6371943E-1,-5.5121414E-2,1.8094571E-1,-3.1925538E-1,-2.9624095E-2,-8.65009E-2,-3.5932124E-1,8.939872E-2,-1.791951E-1,2.7237493E-1,1.6797232E-2],"split_indices":[57,53,42,0,17,57,0,38,7,45,11,56,26,0,25,33,39,29,12,9,43,33,51,0,0,9,0,56,46,50,10,55,0,0,0,0,0,0,0,0,0,0,0,0,0,0,0,0,0,0,0,0,0],"split_type":[0,0,0,0,0,0,0,0,0,0,0,0,0,0,0,0,0,0,0,0,0,0,0,0,0,0,0,0,0,0,0,0,0,0,0,0,0,0,0,0,0,0,0,0,0,0,0,0,0,0,0,0,0],"sum_hessian":[1.1991071E2,4.24496E1,7.746111E1,7.723815E0,3.4725784E1,7.3774536E1,3.6865826E0,2.524155E1,9.484235E0,3.8044014E1,3.5730522E1,1.7923088E1,7.318463E0,1.0269309E0,8.457304E0,2.6085924E1,1.1958088E1,2.44601E1,1.127042E1,3.7112916E0,1.4211797E1,2.3462164E0,4.972246E0,1.6411316E0,6.816172E0,2.4873396E1,1.2125279E0,4.500233E0,7.4578547E0,8.217037E0,1.6243063E1,9.722752E0,1.5476682E0,2.0274231E0,1.6838683E0,1.1171576E1,3.0402212E0,1.1907728E0,1.1554438E0,1.0224634E0,3.9497826E0,2.3468712E1,1.4046851E0,1.1045302E0,3.3957028E0,4.507399E0,2.9504557E0,3.0578551E0,5.1591825E0,6.9873238E0,9.25574E0,8.381941E0,1.3408104E0],"tree_param":{"num_deleted":"0","num_feature":"58","num_nodes":"53","size_leaf_vector":"1"}},{"base_weights":[-7.120325E-2,-2.137047E-1,1.4902748E-1,-8.9732595E-2,-9.051801E-1,3.2860935E-1,-5.0723755E-1,-2.7448708E-1,1.4526181E-2,-2.958386E-1,-6.9014154E-2,-3.747451E-1,5.3403527E-1,-1.9577153E-1,-2.654474E-1,1.6384184E-1,-4.814886E-1,1.4627561E-1,-3.307555E-1,7.837085E-1,1.8777382E-1,2.0518169E-1,-2.0938621E-1,-2.1185832E-1,2.6789993E-1,-5.971672E-1,1.1694938E-1,4.623063E-1,-1.5322079E-1,4.6636984E-3,8.3946913E-1,3.7266853E-1,-4.7667372E-1,-5.884761E-2,4.024721E-1,1.2239381E-1,-1.009894E-1,-8.9144235E-4,-2.329977E-1,-8.856936E-4,1.8078648E-1,2.6299328E-1,5.6049686E-2,1.8836151E-1,-6.5874584E-2,-3.6625806E-2,-1.7936295E-1,1.4573145E-1,3.2412462E-2],"categories":[],"categories_nodes":[],"categories_segments":[],"categories_sizes":[],"default_left":[0,0,0,0,0,0,0,0,0,0,0,0,0,0,0,0,0,0,0,0,0,0,0,0,0,0,0,0,0,0,0,0,0,0,0,0,0,0,0,0,0,0,0,0,0,0,0,0,0],"id":21,"left_children":[1,3,5,7,9,11,13,-1,15,-1,-1,17,19,21,-1,23,25,27,-1,29,31,33,-1,-1,35,37,-1,39,-1,-1,41,43,45,-1,47,-1,-1,-1,-1,-1,-1,-1,-1,-1,-1,-1,-1,-1,-1],"loss_changes":[3.337473E0,5.436119E0,5.1128764E0,4.8044333E0,3.0188608E-1,5.0489545E0,9.3346953E-1,0E0,3.8135123E0,0E0,0E0,3.2605307E0,2.1339145E0,1.440057E0,0E0,3.7656507E0,1.4343667E0,1.4084722E0,0E0,6.301279E-1,1.6972731E0,4.2371118E-1,0E0,0E0,3.1866567E0,1.1622343E0,0E0,2.8492963E-1,0E0,0E0,1.7541313E-1,1.6852854E0,6.159085E-2,0E0,2.7147591E-2,0E0,0E0,0E0,0E0,0E0,0E0,0E0,0E0,0E0,0E0,0E0,0E0,0E0,0E0],"parents":[2147483647,0,0,1,1,2,2,3,3,4,4,5,5,6,6,8,8,11,11,12,12,13,13,15,15,16,16,17,17,19,19,20,20,21,21,24,24,25,25,27,27,30,30,31,31,32,32,34,34],"right_children":[2,4,6,8,10,12,14,-1,16,-1,-1,18,20,22,-1,24,26,28,-1,30,32,34,-1,-1,36,38,-1,40,-1,-1,42,44,46,-1,48,-1,-1,-1,-1,-1,-1,-1,-1,-1,-1,-1,-1,-1,-1],"split_conditions":[1.9263819E-8,2.9054214E2,1E2,2.4396228E2,6.3382186E-2,1.26E1,9.269235E-5,-2.7448708E-1,9.1197975E1,-2.958386E-1,-6.9014154E-2,9.737229E1,2.5440102E2,9.47389E1,-2.654474E-1,8.665557E1,2.6307788E2,2.7000443E2,-3.307555E-1,5.4854584E2,4.3340796E2,1.9999914E4,-2.0938621E-1,-2.1185832E-1,7E-4,1.3421788E3,1.1694938E-1,7.7E1,-1.5322079E-1,4.6636984E-3,4.256362E3,9.365847E1,2.5499225E2,-5.884761E-2,3.1027785E-1,1.2239381E-1,-1.009894E-1,-8.9144235E-4,-2.329977E-1,-8.856936E-4,1.8078648E-1,2.6299328E-1,5.6049686E-2,1.8836151E-1,-6.5874584E-2,-3.6625806E-2,-1.7936295E-1,1.4573145E-1,3.2412462E-2],"split_indices":[27,14,23,10,28,25,54,0,35,0,0,50,17,25,0,50,44,30,0,22,37,39,0,0,54,5,0,16,0,0,18,35,29,0,28,0,0,0,0,0,0,0,0,0,0,0,0,0,0],"split_type":[0,0,0,0,0,0,0,0,0,0,0,0,0,0,0,0,0,0,0,0,0,0,0,0,0,0,0,0,0,0,0,0,0,0,0,0,0,0,0,0,0,0,0,0,0,0,0,0,0],"sum_hessian":[1.0433103E2,6.336197E1,4.0969067E1,5.4687088E1,8.67488E0,3.2558857E1,8.410208E0,5.2619686E0,4.9425117E1,7.334794E0,1.3400861E0,7.173476E0,2.5385382E1,5.4407196E0,2.9694881E0,3.8503937E1,1.0921183E1,4.646212E0,2.527264E0,1.4015852E1,1.136953E1,3.3541303E0,2.086589E0,3.495052E0,3.5008884E1,9.918958E0,1.0022252E0,3.3372858E0,1.3089261E0,1.0350949E0,1.2980758E1,9.238013E0,2.1315165E0,1.1073095E0,2.2468207E0,2.8686827E1,6.3220577E0,2.536986E0,7.3819714E0,1.0001011E0,2.337185E0,1.1956466E1,1.024292E0,6.4140344E0,2.8239794E0,1.054318E0,1.0771984E0,1.2447832E0,1.0020376E0],"tree_param":{"num_deleted":"0","num_feature":"58","num_nodes":"49","size_leaf_vector":"1"}},{"base_weights":[-7.17519E-2,-7.4893206E-1,-2.9704861E-2,-2.5413892E-1,-7.4336305E-2,3.641525E-2,-4.6686432E-1,-1.2531333E-1,2.6073784E-1,-8.8630354E-1,1.13064304E-1,7.5461805E-2,-8.7767404E-1,4.0799037E-1,-2.8032678E-1,-4.3049555E-2,-3.2717305E-1,1.7042041E-1,-1.6825429E-1,-2.4170583E-1,3.454599E-1,-2.849003E-1,-5.5225395E-2,-1.3621207E-1,4.7872356E-1,1.3024873E-1,-5.477733E-1,-1.2630808E-1,1.7728835E-1,1.3000685E-1,-1.9347058E-1,1.6125783E-1,-1.3993485E-1,-2.6181313E-1,5.0880965E-2],"categories":[],"categories_nodes":[],"categories_segments":[],"categories_sizes":[],"default_left":[0,0,0,0,0,0,0,0,0,0,0,0,0,0,0,0,0,0,0,0,0,0,0,0,0,0,0,0,0,0,0,0,0,0,0],"id":22,"left_children":[1,3,5,-1,-1,7,9,11,13,15,17,19,21,23,25,-1,-1,-1,-1,27,29,-1,-1,-1,31,-1,33,-1,-1,-1,-1,-1,-1,-1,-1],"loss_changes":[2.6794026E0,6.1033726E-2,2.6293652E0,0E0,0E0,2.9143987E0,3.0060158E0,7.1402445E0,2.7914567E0,9.1253185E-1,2.1279335E0,3.3279157E0,3.2172108E-1,1.8526778E0,1.7246773E0,0E0,0E0,0E0,0E0,2.9379554E0,2.0967793E0,0E0,0E0,0E0,1.6553564E0,0E0,1.570841E0,0E0,0E0,0E0,0E0,0E0,0E0,0E0,0E0],"parents":[2147483647,0,0,1,1,2,2,5,5,6,6,7,7,8,8,9,9,10,10,11,11,12,12,13,13,14,14,19,19,20,20,24,24,26,26],"right_children":[2,4,6,-1,-1,8,10,12,14,16,18,20,22,24,26,-1,-1,-1,-1,28,30,-1,-1,-1,32,-1,34,-1,-1,-1,-1,-1,-1,-1,-1],"split_conditions":[2.377218E1,5.2928E2,9.55E1,-2.5413892E-1,-7.4336305E-2,2.1628444E-3,2.8205356E2,2.8657056E2,8.84E1,1.0624746E4,2.8415494E2,9.7481735E1,1.0000944E1,7E0,2.6163586E2,-4.3049555E-2,-3.2717305E-1,1.7042041E-1,-1.6825429E-1,1.9263819E-8,2.0000158E4,-2.849003E-1,-5.5225395E-2,-1.3621207E-1,2.9195593E2,1.3024873E-1,9.852407E1,-1.2630808E-1,1.7728835E-1,1.3000685E-1,-1.9347058E-1,1.6125783E-1,-1.3993485E-1,-2.6181313E-1,5.0880965E-2],"split_indices":[19,52,35,0,0,28,46,34,36,39,12,50,56,40,49,0,0,0,0,27,39,0,0,0,33,0,50,0,0,0,0,0,0,0,0],"split_type":[0,0,0,0,0,0,0,0,0,0,0,0,0,0,0,0,0,0,0,0,0,0,0,0,0,0,0,0,0,0,0,0,0,0,0],"sum_hessian":[9.38832E1,4.5057054E0,8.93775E1,3.190205E0,1.3155003E0,7.843148E1,1.0946015E1,4.5830616E1,3.260087E1,6.045354E0,4.900661E0,3.688672E1,8.943898E0,2.5819857E1,6.78101E0,1.6711138E0,4.37424E0,3.0192316E0,1.8814293E0,1.700991E1,1.987681E1,7.7683463E0,1.1755517E0,1.5470297E0,2.4272827E1,1.677138E0,5.1038723E0,1.4402572E1,2.6073382E0,1.8773092E1,1.1037163E0,2.3257208E1,1.0156187E0,3.3637326E0,1.7401397E0],"tree_param":{"num_deleted":"0","num_feature":"58","num_nodes":"35","size_leaf_vector":"1"}},{"base_weights":[-7.2875924E-2,-1.956729E-3,-4.7781885E-1,-1.3536978E-1,3.1460372E-1,6.853799E-2,-5.63045E-1,-4.9053788E-1,7.190412E-5,4.0855443E-1,-1.9834064E-1,-7.3055804E-1,-1.7028479E-2,-7.7168196E-1,-1.2775823E-1,-5.949796E-1,1.05613224E-1,5.473701E-1,-5.229032E-2,-8.496997E-1,-2.4509551E-2,1.1208042E-1,-1.4933449E-1,2.7885336E-2,-2.7715445E-1,2.4481319E-1,-5.700045E-1,-2.1884936E-1,-2.596527E-3,-3.223295E-1,2.2971025E-1,6.311232E-1,-7.82266E-2,1.8260735E-1,-1.6854289E-1,-2.721111E-1,-7.784112E-2,-7.582474E-2,1.3902068E-1,-1.9896087E-1,-4.7832537E-2,1.0052445E-1,-2.4586816E-1,1.209875E-1,-5.1748578E-2,2.0860001E-1,-2.9548509E-2,-1.2935263E-1,1.5320778E-1],"categories":[],"categories_nodes":[],"categories_segments":[],"categories_sizes":[],"default_left":[0,0,0,0,0,0,0,0,0,0,0,0,0,0,0,0,0,0,0,0,0,0,0,0,0,0,0,0,0,0,0,0,0,0,0,0,0,0,0,0,0,0,0,0,0,0,0,0,0],"id":23,"left_children":[1,3,5,7,9,-1,11,13,15,17,-1,19,21,23,25,27,29,31,33,35,-1,-1,-1,-1,-1,37,39,-1,-1,41,43,45,-1,47,-1,-1,-1,-1,-1,-1,-1,-1,-1,-1,-1,-1,-1,-1,-1],"loss_changes":[2.4825623E0,3.1929424E0,9.041641E-1,2.5580819E0,2.3251357E0,0E0,1.0655038E0,1.398731E0,2.5433004E0,1.3762958E0,0E0,6.2592316E-1,8.9784616E-1,1.1479492E0,1.3931179E0,4.748559E-1,1.9006667E0,1.2662435E0,7.9550457E-1,1.82271E-2,0E0,0E0,0E0,0E0,0E0,6.423216E-1,3.886473E-2,0E0,0E0,2.9381247E0,1.9718542E0,7.7313375E-1,0E0,1.1701422E0,0E0,0E0,0E0,0E0,0E0,0E0,0E0,0E0,0E0,0E0,0E0,0E0,0E0,0E0,0E0],"parents":[2147483647,0,0,1,1,2,2,3,3,4,4,6,6,7,7,8,8,9,9,11,11,12,12,13,13,14,14,15,15,16,16,17,17,18,18,19,19,25,25,26,26,29,29,30,30,31,31,33,33],"right_children":[2,4,6,8,10,-1,12,14,16,18,-1,20,22,24,26,28,30,32,34,36,-1,-1,-1,-1,-1,38,40,-1,-1,42,44,46,-1,48,-1,-1,-1,-1,-1,-1,-1,-1,-1,-1,-1,-1,-1,-1,-1],"split_conditions":[8.3E1,2.3975989E-1,3E0,8.008806E0,9.96E1,6.853799E-2,3.1268047E3,1.84E4,1.713447E-2,2.1173761E2,-1.9834064E-1,2.000006E4,3.1469314E3,4.89E4,2.1923328E2,2.5872046E2,5.4875244E1,2.413515E4,9.33E1,1.5483312E3,-2.4509551E-2,1.1208042E-1,-1.4933449E-1,2.7885336E-2,-2.7715445E-1,6.463934E1,7.0381866E0,-2.1884936E-1,-2.596527E-3,1E2,3.0802103E2,7.179809E1,-7.82266E-2,8.047679E1,-1.6854289E-1,-2.721111E-1,-7.784112E-2,-7.582474E-2,1.3902068E-1,-1.9896087E-1,-4.7832537E-2,1.0052445E-1,-2.4586816E-1,1.209875E-1,-5.1748578E-2,2.0860001E-1,-2.9548509E-2,-1.2935263E-1,1.5320778E-1],"split_indices":[3,3,56,56,23,0,5,19,23,37,0,22,4,6,17,29,18,26,35,5,0,0,0,0,0,16,56,0,0,51,37,41,0,35,0,0,0,0,0,0,0,0,0,0,0,0,0,0,0],"split_type":[0,0,0,0,0,0,0,0,0,0,0,0,0,0,0,0,0,0,0,0,0,0,0,0,0,0,0,0,0,0,0,0,0,0,0,0,0,0,0,0,0,0,0,0,0,0,0,0,0],"sum_hessian":[8.547809E1,7.35941E1,1.1883983E1,5.2176792E1,2.141731E1,1.0986573E0,1.0785326E1,1.3680558E1,3.849623E1,2.0066465E1,1.3508464E0,7.994658E0,2.790668E0,7.0724616E0,6.6080966E0,5.1006875E0,3.3395546E1,1.5276979E1,4.789485E0,6.4929194E0,1.5017384E0,1.6626147E0,1.1280533E0,1.1166453E0,5.9558163E0,3.8288798E0,2.7792165E0,3.9502158E0,1.1504714E0,7.148136E0,2.624741E1,1.4040833E1,1.2361467E0,3.7173345E0,1.0721506E0,5.428791E0,1.0641284E0,1.1209799E0,2.7079E0,1.7635394E0,1.0156772E0,3.2186813E0,3.929455E0,1.8332766E1,7.9146433E0,1.2948305E1,1.0925277E0,1.1854235E0,2.5319111E0],"tree_param":{"num_deleted":"0","num_feature":"58","num_nodes":"49","size_leaf_vector":"1"}},{"base_weights":[-7.514675E-2,-2.3802802E-1,-3.966654E-2,2.8604833E-2,-4.4056416E-1,1.7432983E-1,-2.3547006E-1,-8.4699726E-1,2.145826E-1,-2.4541168E-1,3.2901222E-1,-3.0604353E-2,-2.8794414E-1,-7.003955E-2,-2.738696E-1,1.6901693E-1,-9.042068E-2,7.6169245E-2,-2.3120245E-1,4.5053378E-1,-2.2855358E-1,1.9694598E-1,-7.3335147E-1,-8.7189116E-2,1.412851E-1,1.6796489E-1,-6.415846E-2,-1.8080017E-1,1.3670641E-1,1.06151246E-1,-2.0710172E-1,-3.10087E-2,-2.602437E-1],"categories":[],"categories_nodes":[],"categories_segments":[],"categories_sizes":[],"default_left":[0,0,0,0,0,0,0,0,0,0,0,0,0,0,0,0,0,0,0,0,0,0,0,0,0,0,0,0,0,0,0,0,0],"id":24,"left_children":[1,-1,3,5,7,9,11,13,15,17,19,21,-1,-1,-1,-1,-1,23,-1,25,27,29,31,-1,-1,-1,-1,-1,-1,-1,-1,-1,-1],"loss_changes":[1.9840426E0,0E0,2.104125E0,2.589974E0,3.1589117E0,2.889288E0,3.5289512E0,7.403517E-2,1.0838363E0,2.1230388E0,2.273613E0,3.2987003E0,0E0,0E0,0E0,0E0,0E0,1.3663244E0,0E0,2.0551467E0,1.9119626E0,2.4282594E0,3.3591342E-1,0E0,0E0,0E0,0E0,0E0,0E0,0E0,0E0,0E0,0E0],"parents":[2147483647,0,0,2,2,3,3,4,4,5,5,6,6,7,7,8,8,9,9,10,10,11,11,17,17,19,19,20,20,21,21,22,22],"right_children":[2,-1,4,6,8,10,12,14,16,18,20,22,-1,-1,-1,-1,-1,24,-1,26,28,30,32,-1,-1,-1,-1,-1,-1,-1,-1,-1,-1],"split_conditions":[2.6562296E2,-2.3802802E-1,9.95E1,2.41E4,5.4139668E1,8.500052E4,1.4835191E-3,2.5911844E-1,2.8187996E3,4.7E1,2.5E1,9.976724E0,-2.8794414E-1,-7.003955E-2,-2.738696E-1,1.6901693E-1,-9.042068E-2,9.14E1,-2.3120245E-1,9.66E1,2.578817E2,1.875E-1,2.774208E2,-8.7189116E-2,1.412851E-1,1.6796489E-1,-6.415846E-2,-1.8080017E-1,1.3670641E-1,1.06151246E-1,-2.0710172E-1,-3.10087E-2,-2.602437E-1],"split_indices":[30,0,50,43,40,7,21,55,8,40,57,56,0,0,0,0,0,24,0,16,29,55,31,0,0,0,0,0,0,0,0,0,0],"split_type":[0,0,0,0,0,0,0,0,0,0,0,0,0,0,0,0,0,0,0,0,0,0,0,0,0,0,0,0,0,0,0,0,0],"sum_hessian":[7.808718E1,2.6700845E0,7.54171E1,6.523626E1,1.0180844E1,4.2257214E1,2.297904E1,6.1023164E0,4.0785275E0,1.1221187E1,3.1036028E1,1.8725243E1,4.2537985E0,1.032503E0,5.0698133E0,2.3786688E0,1.6998589E0,7.4903636E0,3.730823E0,2.5639793E1,5.3962345E0,1.4688755E1,4.0364876E0,4.0195403E0,3.470823E0,2.2151333E1,3.4884615E0,3.5658185E0,1.8304161E0,1.2992592E1,1.6961623E0,1.0193394E0,3.017148E0],"tree_param":{"num_deleted":"0","num_feature":"58","num_nodes":"33","size_leaf_vector":"1"}},{"base_weights":[-7.973382E-2,-2.843531E-1,5.3825658E-2,2.3592265E-1,-4.3353555E-1,3.47962E-1,-1.07567586E-1,4.5988467E-1,-1.2071741E-1,-2.572683E-1,-2.7102327E-1,5.711955E-1,-3.3162078E-1,-3.1350768E-1,5.083306E-1,-9.712739E-3,1.7588037E-1,1.22397766E-1,-5.1119167E-1,6.5780944E-1,-6.141576E-2,2.2478754E-2,-1.6942829E-1,-1.4691211E-1,-6.858344E-1,7.260437E-1,-8.8681936E-2,-1.4976528E-1,4.032729E-1,1.11597896E-1,-6.610873E-1,7.481171E-1,-4.074909E-2,1.9002719E-1,-5.200547E-1,8.260636E-2,-2.747913E-1,2.4338193E-1,4.1874435E-2,-7.3517896E-2,1.8430728E-1,-2.3558934E-1,-6.933076E-2,2.4359077E-2,2.4462101E-1,1.4935392E-1,-9.688695E-2,2.7369829E-2,-2.2218587E-1],"categories":[],"categories_nodes":[],"categories_segments":[],"categories_sizes":[],"default_left":[0,0,0,0,0,0,0,0,0,0,0,0,0,0,0,0,0,0,0,0,0,0,0,0,0,0,0,0,0,0,0,0,0,0,0,0,0,0,0,0,0,0,0,0,0,0,0,0,0],"id":25,"left_children":[1,3,5,7,9,11,13,15,-1,17,-1,19,21,23,25,-1,-1,27,29,31,-1,-1,-1,33,35,37,-1,-1,39,-1,41,43,-1,45,47,-1,-1,-1,-1,-1,-1,-1,-1,-1,-1,-1,-1,-1,-1],"loss_changes":[1.9810543E0,2.3195214E0,2.1433961E0,1.1876806E0,1.6355329E0,2.6096916E0,3.8895369E0,3.7101376E-1,0E0,1.7784989E0,0E0,9.664149E-1,4.7618288E-1,1.3046737E0,1.5712442E0,0E0,0E0,1.5876343E0,1.6834774E0,9.1658306E-1,0E0,0E0,0E0,2.226921E0,1.7412798E0,2.0608377E-1,0E0,0E0,9.747005E-1,0E0,3.3355522E-1,3.9881706E-1,0E0,1.6809596E0,1.1865544E0,0E0,0E0,0E0,0E0,0E0,0E0,0E0,0E0,0E0,0E0,0E0,0E0,0E0,0E0],"parents":[2147483647,0,0,1,1,2,2,3,3,4,4,5,5,6,6,7,7,9,9,11,11,12,12,13,13,14,14,17,17,18,18,19,19,23,23,24,24,25,25,28,28,30,30,31,31,33,33,34,34],"right_children":[2,4,6,8,10,12,14,16,-1,18,-1,20,22,24,26,-1,-1,28,30,32,-1,-1,-1,34,36,38,-1,-1,40,-1,42,44,-1,46,48,-1,-1,-1,-1,-1,-1,-1,-1,-1,-1,-1,-1,-1,-1],"split_conditions":[1.5196869E1,2.4134686E4,2.1E1,4.4232E2,9.97202E1,2.8064778E3,2.7766315E2,2.5671747E2,-1.2071741E-1,1.3433861E3,-2.7102327E-1,3.04784E3,4.117703E0,1.1E1,4.187283E0,-9.712739E-3,1.7588037E-1,1.3414855E3,9.099334E3,1.1964789E1,-6.141576E-2,2.2478754E-2,-1.6942829E-1,2.0518604E2,2.6062592E2,2.9149432E2,-8.8681936E-2,-1.4976528E-1,1.35E4,1.11597896E-1,1.0231854E1,4.8546754E4,-4.074909E-2,2.8057303E2,8.218138E3,8.260636E-2,-2.747913E-1,2.4338193E-1,4.1874435E-2,-7.3517896E-2,1.8430728E-1,-2.3558934E-1,-6.933076E-2,2.4359077E-2,2.4462101E-1,1.4935392E-1,-9.688695E-2,2.7369829E-2,-2.2218587E-1],"split_indices":[57,26,57,52,1,18,11,10,0,5,0,38,9,56,9,0,0,5,8,9,0,0,0,37,49,14,0,0,19,0,41,6,0,31,8,0,0,0,0,0,0,0,0,0,0,0,0,0,0],"split_type":[0,0,0,0,0,0,0,0,0,0,0,0,0,0,0,0,0,0,0,0,0,0,0,0,0,0,0,0,0,0,0,0,0,0,0,0,0,0,0,0,0,0,0,0,0,0,0,0,0],"sum_hessian":[7.092944E1,2.7566797E1,4.3362648E1,6.013433E0,2.1553366E1,1.4953737E1,2.840891E1,4.6584706E0,1.3549619E0,1.6798983E1,4.754382E0,1.1376279E1,3.5774584E0,2.1658016E1,6.7508945E0,1.10364E0,3.5548308E0,6.9401083E0,9.858874E0,1.0370817E1,1.0054617E0,1.5511576E0,2.0263007E0,1.5926409E1,5.731607E0,5.3885245E0,1.3623698E0,1.9179829E0,5.0221252E0,1.2154961E0,8.643378E0,9.362792E0,1.0080252E0,8.627085E0,7.299324E0,1.0692579E0,4.662349E0,4.3700943E0,1.0184306E0,1.1939704E0,3.828155E0,6.065025E0,2.5783532E0,1.0602882E0,